78 100
agreement 0.010074614007611147 0.0326246179072582 0.06188779551853096 0.08173460538238407 0.25804883231715425 -0.03954674179606591 0.0471426811158679 0.22422565058418495 -0.03155630993879852 -0.4222814655093047 0.04020656388176193 -0.1450367001042742 -0.026358905636902307 0.06126780515739186 0.07600953196224393 0.26006086817057805 0.19420991467165813 0.19811078960683137 -0.07608171149435317 0.23618848759416752 0.11202477379499823 0.018078676743945817 -0.0025339988306491675 -0.18183849988547673 0.11365767727230154 -0.18037246285076108 -0.11536917631506696 0.24146494956309958 -0.0972572249728724 0.005902677532511957 -0.14260876880914547 -0.20220439154891623 0.27484732010432555 0.21299530120657434 0.10246914112737138 0.1626959737799697 0.02637001189748714 -0.058666911502176705 0.25385378249275464 0.012432198818171593 0.018694995408960913 0.05766995209627145 0.14043794520871372 -0.14614327808831665 -0.06874976053130386 -0.23962919859845477 0.08297035360372652 0.370513824523512 0.2572636687868572 -0.08590699296078701 -0.22924045724280748 0.07936103485300215 0.17416720589426796 -0.03805920459349172 0.07531457113863989 0.0036177699484176576 0.10045673661959097 0.27827217194741916 0.02938811380276315 0.0785895586430558 -0.11171217451565237 0.04385266973931605 0.25982283947694773 -0.09374892938830304 0.11812364729383816 0.3513855825620688 0.018240507464597384 0.1514533510090226 -0.1855277253138649 0.06003029694608384 0.03771921423413013 0.2215881638126258 0.21580157579642734 0.05360879452375441 -0.05330593568995782 -0.06778250466399921 -0.02013640315775485 0.17496848271320187 -0.19231141550416575 0.1462452351143034 0.10820642680484466 -0.13240482121719704 0.13978022449832772 -0.1657579522541378 0.3179525154424543 -0.0472045371688404 0.045865538771931655 0.02841543880001076 -0.1335177792474707 0.13192759620985775 -0.3386928279797583 -0.00841370381462897 -0.02166354103141939 -0.0667191147232502 -0.1307421380273609 -0.382061568896966 -0.04402777455300385 0.08783251568302158 0.008005206846578067 -0.06723534479635813
countries 0.011389008766051943 0.03206971902025988 0.054897675209303956 0.08829906752233206 0.26262381374487664 -0.03684368355310198 0.04318457719420461 0.22807200366438937 -0.029780778656209036 -0.43139327097766816 0.041414855463085 -0.14635968368181732 -0.021770834674479395 0.06408170994649261 0.07836519349610883 0.25597777061796695 0.18698983129950741 0.20187396065762608 -0.08599186103024122 0.23653340114387417 0.11911691446763466 0.01242823440565819 -0.010210596314424267 -0.18437155294644045 0.11230582152303907 -0.1866271753234351 -0.11774852387210458 0.2387409281484719 -0.10163844246724119 0.003660379389341746 -0.14881841975771706 -0.21112410180666466 0.275942135086409 0.20621478701269358 0.10367049127759916 0.16315126659300316 0.018945876153726757 -0.056111165170983426 0.25744587616440934 0.01769511814736434 0.016611074382831357 0.05801567624447594 0.14762106326092206 -0.15486762460096085 -0.07186737864095699 -0.23444469187011205 0.08322300263698654 0.38298019619565976 0.26619282539017425 -0.08754382694890506 -0.23709679477080506 0.08309159286841693 0.1775715031022023 -0.040273531619812834 0.07640551668252488 -0.0008322904942093312 0.10577863828523944 0.2859956668756174 0.020695656669519828 0.07614943932829195 -0.11847804309181692 0.03503449115405381 0.26585977218017876 -0.09444454402141744 0.11435925918124225 0.3504067279426196 0.018963642499492395 0.1555491802389555 -0.18521030143838252 0.059521419566825086 0.04040927728323534 0.21567876102317798 0.22630921312212904 0.05278505674941517 -0.06207766491509916 -0.06704404646033751 -0.01735877128089595 0.17933958780192516 -0.18926844377992377 0.14613651146221066 0.11523160270186933 -0.12364864497003691 0.1336566857031675 -0.16616188979116003 0.32218583227787534 -0.04843512120087199 0.040238491705309354 0.021157606694912637 -0.13554131783444864 0.12828781421370067 -0.34052231074307127 -0.007943826191889457 -0.019479084077883978 -0.06987708909413634 -0.13039948802080104 -0.37894417070232167 -0.053423479416606585 0.08845038887184595 0.010108568936976016 -0.06342018412705001
eu 0.008354053606910591 0.037417767883268234 0.06369237716308424 0.09160418213923488 0.2692997399879924 -0.03889975685896932 0.04742401293323621 0.2368780162646746 -0.031212565332104692 -0.44410940954345257 0.046563923247344166 -0.15358750283847766 -0.022494417421739337 0.0581958179789607 0.07331234060656569 0.2673617785472936 0.19283281755255605 0.2049882224359281 -0.07987254444235777 0.24103617259546295 0.11801060610211532 0.02068571132621059 -0.009739052895095713 -0.1924164762335755 0.11349362146830207 -0.18961459737966138 -0.11761870938661803 0.2503214030871642 -0.09744752519778774 0.012676800723267588 -0.15538639791232273 -0.2144065516552025 0.290614743323894 0.22101412234517231 0.10632179554106765 0.16622003864886695 0.020314627480089345 -0.05843559230511099 0.26947031537696076 0.012911987209387524 0.01937551201664455 0.05815436343559946 0.1501776977600088 -0.15503688579370048 -0.06660577323496213 -0.2503942032244894 0.08816055466010109 0.39436464228639734 0.26878437410349254 -0.09730769507230086 -0.24400124767252107 0.08393970325793762 0.1837778441924544 -0.038444991182261065 0.081848456924259 0.0038124786699768993 0.10988503961889029 0.28931244500603964 0.028656164813139668 0.08036985621662383 -0.11707216740400299 0.04074805003232651 0.2687946962127037 -0.09597536786968994 0.12173587794652004 0.37000290533205765 0.022300856845622632 0.15067825177727218 -0.2005052193522916 0.0631875457918377 0.041364695989232494 0.22573298729872712 0.23193317766225677 0.06113063014657415 -0.05691938291443473 -0.07079149961517259 -0.01465997526054095 0.18119035839154926 -0.19837634704149018 0.1521311764178746 0.11954940164904557 -0.1372690349413167 0.13829839549208822 -0.16912130858416863 0.33263129768686706 -0.048071796501805895 0.04259731378812284 0.024206180621318026 -0.13608322286112717 0.13894063770885393 -0.34968392196978915 -0.008822258673245816 -0.02081592258038705 -0.07190600049640147 -0.1274183179289774 -0.397058150633476 -0.04875175711198237 0.09454676992200485 0.010333584833955106 -0.06908068097574874
number 0.006869979507432319 0.029309902482348105 0.05272069605961033 0.08893845444277443 0.26886145665611 -0.045054082095796984 0.052246540657919074 0.2308844439284516 -0.035455510032908616 -0.42852480094174894 0.04049139082450247 -0.1437922218248994 -0.02656672333006326 0.06359985877881405 0.07511899448502687 0.25636009623074596 0.1915226699419629 0.19559199343147285 -0.08030289202847511 0.23455038452419932 0.12249468754888727 0.019824129915103236 -0.004524286866554454 -0.18144277537778106 0.11109633121694386 -0.18186853504131628 -0.10606933374688095 0.2422574935120352 -0.100726764235822 0.015333582747279735 -0.15092389608945556 -0.2143729253820497 0.27511750297294424 0.20975663872649433 0.10647456969529054 0.16948764998095314 0.025714030460783816 -0.05452951365132588 0.2648763121392479 0.012714434635554387 0.013893148013055528 0.051638200014338574 0.1436986350399327 -0.15427829688220362 -0.06624250354495405 -0.23378072509461198 0.08220547937025292 0.38054785667628627 0.2631651595942924 -0.08943969214538586 -0.22689370807955014 0.0897971123916939 0.1813732828590166 -0.04128222066258061 0.08354941061016707 0.0018099974075238676 0.1083785860698338 0.2757374381084239 0.03061860987628365 0.07559056557763826 -0.11688770344862648 0.039111858550434676 0.25388266748263894 -0.0964101336031511 0.11665150717361546 0.3539849459448428 0.015589088985803988 0.1434299993809913 -0.18547020828401664 0.060122568183836746 0.03967451856466499 0.22429294306393951 0.2270952956141318 0.05028018939058683 -0.061178826602034636 -0.06545277043451675 -0.01199727327668095 0.17157466182538997 -0.1849513953382418 0.14939835545606095 0.10596199622308253 -0.1319709752618352 0.13196971907574329 -0.16621004399099673 0.32541600203341553 -0.04951047378128646 0.050014676894647905 0.024254914694247988 -0.13973385820507736 0.13360812613574366 -0.3315148620309822 -0.009806313486384383 -0.013437341983985067 -0.06141466756617972 -0.1281444296654163 -0.38479546582713536 -0.05163446299555955 0.09155887390269744 0.0015870004666854716 -0.06283532788034907
over 0.0024654946312825904 0.03628145534939016 0.05456907204410221 0.08604344963664354 0.2653899513178718 -0.045057004080693394 0.04372991075237842 0.2286517022432935 -0.0268165144569992 -0.42902364543548976 0.04279059322634054 -0.14705973234459108 -0.023549552344578364 0.06630132799868581 0.07684124100494157 0.2615488514470554 0.19401588232939362 0.19992218253989996 -0.07807324938059397 0.2348299375656731 0.11618404486906597 0.015714987925711358 -0.006894513697362373 -0.1882689517962903 0.10859053426601864 -0.18735565930200024 -0.11080923909529279 0.23654049307449024 -0.10074332865338982 0.005614361643804072 -0.14365228346695277 -0.20502677861428367 0.2788396551811148 0.21379782195623562 0.10211642990130379 0.16463608481468392 0.02385458884135458 -0.05190591249231041 0.2634593517066238 0.012224701289368891 0.01465532282174754 0.051587979598425045 0.1411663534222152 -0.14848951530221402 -0.0714784043812388 -0.2389605250907809 0.07654957674956955 0.37582006424021397 0.2670111060185378 -0.08922144318835122 -0.23518434189435092 0.0862972996440296 0.18204628851553545 -0.037043686914560656 0.07542351273148087 0.004036697500393375 0.10210294999835044 0.2838804122583861 0.024850659247150356 0.07901200674433918 -0.11430445196522238 0.04180854350611907 0.2587896767081234 -0.09035742869371874 0.11385807012636644 0.35673908237491136 0.022431372575095677 0.15582860326704762 -0.18992462595696621 0.05961107392266774 0.04242993717221783 0.22080312970399793 0.22692242235705756 0.05637738640563329 -0.06092303692242105 -0.06400254561850582 -0.011514863012555462 0.1742908385687038 -0.18906841944931121 0.14195004997086771 0.11247844789707591 -0.13146803360878562 0.1317242661371336 -0.15973682013910684 0.3215886162596804 -0.04353740353305042 0.04243172060525618 0.029913847516611233 -0.13657793749779978 0.12694769840363512 -0.34082287293764296 -0.012595029065781499 -0.02002424044754796 -0.06433552443681176 -0.1246247491743286 -0.3869958474968191 -0.05051516188723 0.0847577603963711 0.0039027654912757725 -0.06479895262249995
religious 0.010828681456601697 0.03375295169743948 0.053754843443112335 0.08637350538272434 0.2596739743703004 -0.04437267609513522 0.04376384168989382 0.22681345712216308 -0.030574568977933488 -0.42056383689765253 0.0411804001314452 -0.14811186268616114 -0.03186022267427475 0.05829072478088276 0.07304741126457666 0.2508355325103578 0.1901930008176252 0.1900518379370469 -0.08060976369600768 0.23170131496071894 0.11511726342623127 0.009578426940466634 -0.008390135820309414 -0.1794534219722304 0.11191728714802661 -0.17909819815663006 -0.11603000823829138 0.23046960501589317 -0.0943342168827909 0.009011376639481806 -0.1391499447616221 -0.203288691257894 0.27521298536080746 0.2063363892049533 0.0982840414371927 0.16211475938494585 0.020707454608103644 -0.05791162106565109 0.25793160700028867 0.017564611991927676 0.013067499805312585 0.05668951084383793 0.14205854239705226 -0.155907183508843 -0.06791490390388263 -0.23046662567437032 0.07372345380860022 0.36718099420028977 0.2599501615455957 -0.08714621727706144 -0.23081647199187472 0.08364062656427128 0.17261425448815437 -0.040058997495268395 0.08093268317267076 0.004174731426138381 0.09703965700681534 0.271758220447355 0.0176820727646285 0.07196993900268416 -0.11070225065764804 0.039129356740092165 0.252661819909341 -0.09452200648411545 0.11186972769399607 0.3461938969178965 0.014465614546384674 0.14745453758195282 -0.18443485463914347 0.053954740756013364 0.044110639118877464 0.21103746647794966 0.21593010249335037 0.0562484474809708 -0.05651157516249955 -0.06049491034146823 -0.020060641448414424 0.17916988796887343 -0.18698024944678643 0.14487203622152395 0.1029415844179676 -0.12439657911290238 0.13764051916944237 -0.15566727527478857 0.31677602618832795 -0.04879291282783805 0.04931033907098043 0.028901609180057637 -0.1263921865586789 0.12276744985205254 -0.32921552281215016 -0.010726505330420424 -0.012655826869254037 -0.05857427368448073 -0.12390480408641259 -0.3771077730141454 -0.05290467912583071 0.08955935662848598 0.011482128660433744 -0.06072907930887857
since 0.009866922347584076 0.03172812876762406 0.0550939510562563 0.08452604877588141 0.2643329235661898 -0.04283770604242281 0.0509327286450261 0.22194409099872023 -0.027603776854805938 -0.4242502846336939 0.03796287773923015 -0.14591189929966275 -0.03291153637585987 0.06399836167314095 0.07188460312590134 0.2567336836911687 0.18554961853063567 0.19862678553141225 -0.08026423722102687 0.2358122020126983 0.11460440556927294 0.016467193535108577 -0.007649516175889712 -0.18516730784998311 0.11540009876130937 -0.1843686616485974 -0.10897475140404311 0.24048906613701523 -0.09681288666281775 0.0052946993068746385 -0.1446766148707695 -0.20322584956642936 0.2736033447011419 0.20631921662919436 0.09795791488716965 0.1611985404753554 0.022054481496009085 -0.05213334436298764 0.2540554400858702 0.016718495607011264 0.016823571380078027 0.054823927208130716 0.13852807477147952 -0.15100947298349557 -0.07207658803519666 -0.23898700537586023 0.08608202941970407 0.37350427250990603 0.2607468010450849 -0.0850073344587472 -0.23706949733011395 0.08518384768394092 0.17780088446241446 -0.03951836720260856 0.076385183479969 0.0014119305821224087 0.10504997139793244 0.27673483400899496 0.023629239575396904 0.08276228819838702 -0.11574227828076536 0.03952824165532661 0.25764861333613304 -0.08636669015860099 0.11482216522162604 0.3525095610089255 0.020865457570705362 0.15507600529503374 -0.1900679048857129 0.059386541119009824 0.040878408920906655 0.21620488708254854 0.2167514116946727 0.053261997850969016 -0.05433209659079282 -0.07118901859484007 -0.019269287251077332 0.17344830975893774 -0.19193434613728605 0.14319516062695417 0.11437198240031891 -0.12670802176637663 0.13310053033733305 -0.1665207013552201 0.3206472756750836 -0.04502148019419641 0.04326068959224538 0.030097354940575496 -0.12887667476202708 0.13003630614333944 -0.33051760003701436 -0.0067454352265265615 -0.018989101237867498 -0.060502958628824585 -0.12957598636552844 -0.37882568956557583 -0.04821392971689864 0.08237179429686999 0.007403555151153377 -0.06636315298050595
some 0.007585822424374536 0.03241853808631546 0.06160380071111377 0.09321659991435025 0.2643679103056855 -0.04140735071655595 0.05060647393997917 0.22416313587333658 -0.031995791092838656 -0.4314901828047869 0.04083280751779842 -0.149687269248468 -0.02491352820342561 0.060545415635937565 0.08016019658803351 0.2561418255913367 0.19214055453644055 0.19702865971356712 -0.08629183108882424 0.2324319800079353 0.11762157881605105 0.018231875336023797 -0.001976618500456158 -0.18389021359701865 0.11495866937420648 -0.17848660122076623 -0.11445546042218506 0.24221105817898833 -0.09539964185470688 0.01028938245266816 -0.14855493410133105 -0.20347648676022317 0.276770526317643 0.20958806184460677 0.10320446950274861 0.15947491477787923 0.021531486656516025 -0.053141760490843654 0.2605179400988782 0.016533045631043086 0.020221921090606096 0.05297538763860173 0.14668963806645435 -0.14928004808785322 -0.07263283216374425 -0.24344342058759402 0.08514413000311713 0.38037597634492815 0.26710118069976757 -0.08922290661185268 -0.2302013764854582 0.08917316827339479 0.17924337145529717 -0.03416053042134835 0.07970419643964224 0.003513640732381215 0.10334310696147976 0.2798052132106612 0.0273734534652638 0.08090204133142577 -0.1215431123507205 0.040673059340733335 0.25705973769997204 -0.09378985784845122 0.12192362250266457 0.3584293936126097 0.024131329145045382 0.15804146660882432 -0.19315667865200428 0.05625820221115402 0.04497663671357668 0.224922354756208 0.2230124647407326 0.05493361691969002 -0.05735819701586153 -0.07369917121096177 -0.010511457772679499 0.1726997204534285 -0.1928100609827377 0.15037064019566546 0.11077527345150928 -0.12998359985872604 0.1359458825152296 -0.16350342665007525 0.3217810933047532 -0.04571962769237271 0.042333786284194215 0.027269392926038027 -0.1356726319112002 0.12796232554659473 -0.33614371612410954 -0.013721509804078328 -0.013232974194358888 -0.06072681250450928 -0.12838834958272646 -0.38551016561561763 -0.04793199440930118 0.08612976308453657 0.0008915178510458928 -0.07112778230468415
there 0.008103902066232078 0.03054010740106985 0.052282399131762074 0.08780694910573274 0.2526284166728373 -0.04463581847546445 0.05023605538162766 0.2175494958239137 -0.027799448444863224 -0.4145843925781509 0.04146844363831557 -0.14143869048214722 -0.02300660059553837 0.0535008173882332 0.07293242642371763 0.24821213158683464 0.18430683363438186 0.19280203806936375 -0.08001967440452248 0.22432406164124677 0.11599814613760472 0.015674680553648245 -0.008388035203655109 -0.1810869687403041 0.10831970666074338 -0.1824131174533403 -0.10327888658478192 0.22474404517533356 -0.0900462044619074 0.014951987909328397 -0.13749638416770005 -0.204700803570164 0.2733252236938612 0.20400283272711756 0.09617882489705444 0.1632101529943207 0.023811289034153825 -0.05891233368446212 0.2482956576570499 0.012627127500720314 0.012599606080574819 0.05345659785797377 0.13622026638840307 -0.14752153042094698 -0.07076779436110175 -0.2328313082459108 0.07632153360256158 0.3645792220880047 0.2556428685761777 -0.08261458080054535 -0.22152437434903322 0.0832685791060537 0.16862947840856762 -0.03573800370226206 0.0805534438303464 0.0017964990380891386 0.09608769720905729 0.27386316271433864 0.023178018876931772 0.07587694968746331 -0.11467939627364714 0.03167454167013139 0.24875169919902512 -0.09367857739808003 0.1105422624337106 0.34752059804001734 0.020800872543805235 0.14049022214032175 -0.181677447192237 0.05888817527081283 0.04341677962704546 0.21461014226176922 0.21881710306669577 0.04986411997479346 -0.05744770971403849 -0.06366093519582976 -0.018000446616867893 0.16782239090485848 -0.1788274812537096 0.14310506873280862 0.1078922846046761 -0.12628193424080722 0.13296994486765445 -0.15851636879856323 0.30629484277401725 -0.03977778596851067 0.04166053240370648 0.021586433014854342 -0.13307314600578443 0.12282038216590663 -0.32508362695781795 -0.014546253065065075 -0.018488767616176762 -0.06045047951728989 -0.11955136310046481 -0.3731653806526404 -0.04696879184699911 0.0813210267224491 0.0035503089725716997 -0.06374443567293861
top 0.00868017219753112 0.03257081293097013 0.05360205214829984 0.08507651943715518 0.2664254538530537 -0.034905929036880126 0.04371432624588727 0.22201937321904958 -0.03639807519475333 -0.42645106802123905 0.040762914834228406 -0.14612368021631608 -0.027148435076628757 0.05628450400574268 0.06916763799150319 0.259399488109223 0.19797227713893992 0.19375376382767684 -0.07257035452705664 0.24112517827036323 0.11494823769868767 0.017846019227550202 -0.0038922729407052607 -0.18376797236054768 0.10791599774341791 -0.1864401933134505 -0.10654899841395146 0.23142265721156782 -0.09227491339403675 0.01611536035469789 -0.1483629275301086 -0.20718058901384234 0.27480960516018627 0.2101992677575097 0.10564722037425897 0.17058866769899222 0.02332269650059525 -0.06276727928022284 0.257472929245943 0.013735888519171315 0.013810031396085807 0.05986973238275339 0.14476053114451282 -0.1563143493498521 -0.064340922301842 -0.23397736810214362 0.07858314943771183 0.37750316714690835 0.25998211442696656 -0.08777567140899331 -0.22548348401157858 0.07838227178139591 0.18282443671599294 -0.030453423129432885 0.08101071075399618 0.0058162357229770865 0.10131277041632253 0.2872632161452404 0.025036086479613112 0.07640262003288373 -0.11483275819693912 0.04173882827991788 0.2582323754167328 -0.0944797974139148 0.11452072016853404 0.35945258770278427 0.02007163714037694 0.14326932961068542 -0.1950505211797244 0.06075586912732577 0.03717334690543353 0.21963646910033013 0.22221348535885288 0.060650808907047285 -0.06584783513509396 -0.07413097615196276 -0.009265926601392615 0.17528966093058737 -0.18862104594239623 0.15185645158231217 0.10712501444965532 -0.12426468359936499 0.1387046764887587 -0.1618084841563509 0.3244675218929274 -0.04661600945253292 0.049034187181164895 0.02971119449348701 -0.139572798157474 0.1370396428435422 -0.3376216731102981 -0.014469959331126133 -0.01763071559540242 -0.07249658996502016 -0.12446791832487317 -0.38807166728563697 -0.05108227296760459 0.08390841945877557 0.014507093909008026 -0.06599131474368759
well 0.01104834283417319 0.03157326167790242 0.05398520124877299 0.08125942159250044 0.25326930671067194 -0.041542112598050684 0.041966599894856495 0.2142637811408615 -0.02632187780564015 -0.4089682454231477 0.03844574205432117 -0.13866462950140757 -0.023291710937421987 0.05647138587638337 0.07651392323188133 0.24290198182842276 0.18480574095654018 0.19148471769604106 -0.07127490399019654 0.22627127214876483 0.11588094412755931 0.010823623763980217 -0.0014666854142452522 -0.17339125035496925 0.11177159268506019 -0.18102098309496603 -0.10399589205118334 0.22688458784562465 -0.09723038842397054 0.005965931547160191 -0.13503974325689955 -0.2017307068815926 0.2730077161981013 0.19897344007005444 0.09961155193750212 0.1543228713664703 0.01769893820925848 -0.05808861744717225 0.252731805456208 0.017141622500153917 0.017466910332840112 0.05210032334374538 0.13972822816960692 -0.1510342194961533 -0.06547893664425294 -0.23461910081191717 0.08267320986217667 0.36459568010733157 0.24609485246635657 -0.08761315860761835 -0.22229688938186756 0.08159126932655333 0.17368344639274488 -0.033052864738134645 0.07090644730708441 -0.0008734345394510982 0.10185681412978369 0.2769040649148256 0.024386179155951322 0.07266608170951644 -0.11048184091127768 0.04100726655906416 0.2522292553026593 -0.09203469803943944 0.10963232115609825 0.34000128959068054 0.024165976998631836 0.14149079009936968 -0.18377834902023987 0.05487888146902783 0.04535381828775261 0.20898415216382843 0.20990635121352957 0.052479958943170875 -0.06182139867231028 -0.06285349363631672 -0.018597951505296164 0.17272046840043803 -0.17622351294130364 0.1423436140917428 0.10986431886906156 -0.12177542264444799 0.12926511246693237 -0.15102213499520942 0.3129181270458921 -0.039904097604831976 0.0422246147658841 0.024678139594533355 -0.13583143957211372 0.12984849194997292 -0.3281264548500673 -0.01234825460153898 -0.019819037666794572 -0.06809416030159389 -0.12539122439602496 -0.36720906462276115 -0.04673753620229838 0.08508633573765627 0.010645548509726007 -0.062532326933748
all 0.00040970116946000945 0.030040115593069433 0.05363337257672513 0.08842970915045718 0.26198085748196487 -0.036401995852900895 0.049033392662077714 0.22130972167419494 -0.02999301417799095 -0.4116227523414005 0.04338019845670645 -0.14722218301909162 -0.029789215071661178 0.0633301996071206 0.07371014483504489 0.25110640165895415 0.19035335188934724 0.1950811476125111 -0.08227510773102711 0.22407677491383657 0.11090533540083541 0.015651333651444194 -0.003702461458088853 -0.18251969698110074 0.10989183879992406 -0.17654391413669382 -0.11251265277322112 0.2292337802324896 -0.09428760746687492 0.013057208256234968 -0.1380041547870458 -0.205896212477076 0.27679716084306055 0.20902094864635826 0.09379383882709937 0.15533654954198767 0.019179554852120185 -0.06428613677214694 0.25292880149588276 0.015304652385218543 0.0190254895027224 0.05520218646982056 0.13662456776686555 -0.1524500854779041 -0.06904580590628423 -0.23720381935207807 0.07406030798858607 0.3671235984779081 0.24828487878640507 -0.08905771506392077 -0.22860600945233508 0.08064732430002841 0.17493580313413223 -0.031911444686998386 0.07414786308408132 0.000955362194656816 0.10167798545763614 0.2731340219933445 0.0285369682686089 0.07686045335060669 -0.11597841856674279 0.03844153337103177 0.24711015530121608 -0.09327755974139272 0.11675556902049268 0.34065987924412583 0.01814179038985691 0.14735668039883845 -0.18179080051461152 0.0560039663801067 0.0417887265732181 0.2191164204531537 0.2165215647134685 0.053206292164414706 -0.05495061304464746 -0.0679791390925074 -0.019087238080084962 0.17085981798129501 -0.1812194787123036 0.14436618824014 0.1042558981158867 -0.12385681327560401 0.1330032988319704 -0.15843649616699418 0.31522561153656764 -0.04891851692995733 0.049681494349857885 0.01908869426418235 -0.13551130544331025 0.12499629887433966 -0.33126330778624247 -0.01373582844277466 -0.019750365111479467 -0.06794687779634465 -0.12230617245553776 -0.3781793852289001 -0.04684634276398829 0.08998505755482533 0.012366425027962563 -0.059122098227214315
also 0.006710218754244904 0.033876950358220706 0.060532595033350456 0.08599656517415266 0.2656348993783558 -0.039906037702284056 0.04473498594425107 0.2230457599976607 -0.027270752462683595 -0.42725915427215894 0.0444772275106494 -0.1509880243170446 -0.028892077253820446 0.05588273698608043 0.07745751841368752 0.2515858716658537 0.19164574883529942 0.19795264941792595 -0.08032790416929726 0.22967114617157644 0.11591975232417373 0.018888675646847288 -0.006630713930318223 -0.18051226063207418 0.1088576426563874 -0.17960763111748265 -0.10853978336627898 0.23835297022300936 -0.09842630887920822 0.00747844602832782 -0.1475847996902377 -0.21011751303566029 0.2805219249267681 0.2091948733847473 0.1044177754009464 0.1589952864299528 0.025479701443844902 -0.05970171497866717 0.2613804829496998 0.013257839745174681 0.011449668616809882 0.05404454051934095 0.143238296146656 -0.14884825761834986 -0.06551334497419395 -0.23306013603167924 0.0806705335268298 0.37768589231690447 0.2573458636720481 -0.09111434219442666 -0.23638109986245623 0.07976183630188566 0.17937129747782898 -0.039491792617445974 0.08231050338270703 -0.001367310141879162 0.10788676076366974 0.2862810942239466 0.028500515459802613 0.07845281425285064 -0.1157813212039761 0.03694470677489114 0.2575193368121516 -0.08927860509467705 0.11875519897271783 0.3544376277264379 0.017589244735004107 0.14504916269387239 -0.1894787443499383 0.05356518718584455 0.037327994010402994 0.22092860918123264 0.21733460702604657 0.05514060657053664 -0.0586463522458488 -0.0699492042866605 -0.010787020504022568 0.17409783432641662 -0.19298049566238687 0.14460472125944174 0.10753639690773585 -0.12964483564410487 0.13684308661410968 -0.16535539020835144 0.32315806928368646 -0.04093431037793059 0.040836630452886345 0.0284327484352535 -0.13224917776590525 0.13551950369487586 -0.3352564268487418 -0.014730244043800632 -0.018962756201328694 -0.0631060157267059 -0.12241806960887101 -0.3833685978604337 -0.0506611325607114 0.08886119633714563 0.012588397299474358 -0.06482621395158061
many 0.008634655707262743 0.029771562765886512 0.052985404771277576 0.08405719774786788 0.2651952940710044 -0.03942796801069748 0.044168507657246635 0.21907257612358733 -0.02922094570670554 -0.416589690816348 0.041632054524264855 -0.1429854021084247 -0.029165437528127135 0.0634520636731004 0.06970559967027404 0.25575203352959486 0.19118700980035205 0.19097010882048351 -0.07675755639767502 0.2258322682493058 0.11760426541007249 0.010766299870790483 -0.0005782792127639537 -0.18176204971971882 0.10816579844923292 -0.18317044304338898 -0.10592803409537949 0.2306238939530868 -0.09113490607185518 0.014442088467192828 -0.1455667406773571 -0.20745915308785903 0.2713884953080281 0.2094952207006672 0.09601925243314924 0.16234094849905242 0.02176895454796306 -0.05798408060995576 0.25209805930253765 0.01806478649179537 0.017302483971775855 0.056934289192928283 0.1364030974539739 -0.15477534346025476 -0.0660629240295547 -0.23459898999758183 0.08233346256943223 0.3655561720798909 0.2505580326426323 -0.08897541492833454 -0.2215309589855346 0.07914861385750951 0.17448691766892957 -0.03267024231235633 0.08044736677197317 0.006626747515067242 0.09979297703730794 0.2822028944076113 0.02083851513720281 0.07962016837636127 -0.11622893274907027 0.033694531678842427 0.25610723703580207 -0.09303761840994541 0.11096750734211622 0.3507632024911868 0.018460353233988383 0.14384819523264616 -0.18962078039840763 0.05802447788950341 0.044700829523368 0.21395850534488833 0.2150807404271965 0.05756566100224955 -0.060430120566273234 -0.06524132803820633 -0.014801832578772833 0.1683464658856165 -0.18751109507238298 0.1483463332527024 0.10489083625212621 -0.12522904076122066 0.1305262775058622 -0.15701409127877516 0.3121092052353263 -0.04349936600409373 0.04900063113448547 0.028553937693645955 -0.13821472677428412 0.13062668720705414 -0.3354411887241312 -0.0078889693964858 -0.022641031662849923 -0.0717252590008934 -0.11882872881140193 -0.38250316546320057 -0.04843244506482347 0.08057199750341032 0.015894518043592137 -0.06176167134168879
oecd 0.01135582155635815 0.03584185631599025 0.05864152253956962 0.08430105298634644 0.2596176384086005 -0.03714567001836315 0.043754202865135004 0.21838677025565376 -0.029725021371341382 -0.42478362048089163 0.03899758043471543 -0.14148065637117171 -0.022996853887760838 0.05538920964323466 0.07884004458186637 0.2563066893627218 0.19463428962180385 0.19691529063387236 -0.08015769411696785 0.2358567217823706 0.12044724174514986 0.018163843816255226 -0.0006148448351114486 -0.18852212859137454 0.10612641878973247 -0.1799618174616435 -0.11534347449384655 0.23690487412781383 -0.09734174447691558 0.010117126552501798 -0.14627319790102902 -0.21156726923330804 0.27282746316667117 0.21093523265490735 0.10274556463092877 0.1570247304139414 0.021750660881873937 -0.05285007126757055 0.26158755996018124 0.008450330525660897 0.01618677016159358 0.059328230961445294 0.14278685639732588 -0.15147394145212437 -0.06880779061659999 -0.24007468336338436 0.08162519256405075 0.37513863412241005 0.2577568117910623 -0.09070229116708722 -0.22346568282982798 0.08049618932291762 0.1761907862099238 -0.03276293334185183 0.07922546487542327 0.005283809847071156 0.10087001041248382 0.27746125007372 0.020054061299748845 0.07150180017905719 -0.12052647790203169 0.04244159378033777 0.2609663793511362 -0.08798105624227374 0.10860386831713514 0.34581999887593645 0.02166945817784255 0.14243387180472383 -0.18743273765052437 0.051300299123907524 0.04238005517617141 0.21516336358501123 0.22334787559714675 0.05621633104986649 -0.062330184889397816 -0.06578866626086785 -0.02010832385850709 0.16988162068120155 -0.18515452721047315 0.14652015975521554 0.11146073417936367 -0.12026825145541661 0.13194042192384642 -0.16027220287595695 0.3157838107371015 -0.048782523959068 0.041470462808925836 0.021145122385587797 -0.14090174074609968 0.13522098615252692 -0.3361429092625789 -0.011525526966825104 -0.014885459142626498 -0.06292771328793177 -0.11996081800225762 -0.37527000274320754 -0.0459123066966943 0.08973086298214776 0.014963486970668313 -0.05891806261909564
people 0.00606945117990939 0.038664894315089654 0.056521980481804825 0.08454536860445677 0.26371375238542166 -0.03545963903901231 0.04371549024875858 0.221725319531007 -0.025099924495517952 -0.4243247146531377 0.03619608250303663 -0.14609372175801513 -0.032912555987593996 0.06443833875106111 0.07744023049499495 0.2616509733520981 0.18560796700022353 0.19643957831282755 -0.08547846743353713 0.23707419018419054 0.12193166051028523 0.01819497133722224 -0.01237198235739421 -0.18797805523136024 0.11083739029974675 -0.18156684968670106 -0.11710166932838534 0.23742507654228243 -0.09876656616510641 0.011834637688017497 -0.15130870328276505 -0.20121909959658923 0.27758934973991806 0.21198152391031772 0.10542799164567696 0.16458331010096727 0.020654862371951875 -0.049894137440772535 0.25998746104771586 0.014417069101267763 0.018903360034346377 0.05874163870528759 0.14437494607748533 -0.1492052363647757 -0.07262651438306578 -0.23934616333171554 0.07963903455524314 0.37825617362201375 0.2620231466293068 -0.09130580354438891 -0.2365587425332003 0.08558431406207002 0.18186100634129762 -0.03659934711713328 0.07715911908342267 0.007739159217482254 0.10324597124718006 0.2852464217025616 0.022380849676036485 0.0796013913586634 -0.1192028456833593 0.04010470048512484 0.2593301762576884 -0.08875732654587025 0.12462608664553707 0.36090416364955635 0.016145399804444124 0.1606761473257355 -0.1892726469330205 0.061074525234960805 0.04342078957391271 0.22637726698111954 0.22786068112014804 0.06379401121846903 -0.05933262353076353 -0.07103547167465257 -0.008824106133007477 0.17153139633848263 -0.19745247827394966 0.1452012275712912 0.11006779165985489 -0.13142219182772033 0.1314550355819907 -0.16188871854488418 0.31974158168124484 -0.05070272375298212 0.0517258643669561 0.025076061609150452 -0.1328367163382207 0.13233629603247468 -0.3360318754347195 -0.012382062202954005 -0.015655333459488708 -0.0670369532668384 -0.12834323708786685 -0.38245663236721505 -0.04394817489183461 0.08728205169511445 0.0013835853939257036 -0.07148990131968662
religion 0.008287796422042122 0.03604210018070909 0.054344076710788954 0.08950921020339545 0.27108220690458273 -0.039003119674543875 0.051154726005552445 0.22521374185889068 -0.03390165341262334 -0.4340107636701195 0.038145680353501396 -0.15329092250435725 -0.022805484902818893 0.05658230499207202 0.07927055534194624 0.25406062051166356 0.1978901995903322 0.20430744826975283 -0.08130873803933156 0.23974462564808396 0.11877503314874237 0.012689365639165121 -0.002390866647250254 -0.1888811635055429 0.11470264096496402 -0.18248727158171404 -0.11023028241592908 0.2356070218133004 -0.09803137393931567 0.007186539024023024 -0.1430486777660962 -0.21334293770615076 0.2871790052484535 0.21177171978541057 0.10014389630819293 0.16782969138257245 0.0200238054990001 -0.05320776497469948 0.25971353535549835 0.013932325424948107 0.0171673417375454 0.05622884196419179 0.14102589761407286 -0.16024377648973434 -0.0701589203093705 -0.24680433718049588 0.0763495186981629 0.38571042187959803 0.26349912248903634 -0.08633185356926021 -0.2352354335568663 0.08879299993712085 0.18648588714458883 -0.036714527358066476 0.07755779603687722 0.0013027407019473966 0.10315478144215853 0.28659697180390964 0.027560784044644005 0.08054886445718004 -0.1186211923359749 0.041541156819103794 0.2632555095580948 -0.09572693297584331 0.11306878444023065 0.3550527279432785 0.019006248549164686 0.15450694549195162 -0.1930118879540028 0.05448412888366226 0.04369872304366002 0.22596328756378137 0.22817305071705937 0.057653120516861556 -0.05686624040293814 -0.07119904514720644 -0.017338149403325644 0.1825310423983798 -0.18738944854229536 0.14752253794187034 0.11218918039551395 -0.128745554808902 0.14310769222154104 -0.1629666830932462 0.3271579069180141 -0.0434294926083824 0.05182748374314137 0.02826704679731786 -0.13916101664675254 0.12808094915490825 -0.33878690901021724 -0.00692072044110194 -0.01720190995957242 -0.061511263656667 -0.1316573864460177 -0.3912772015556637 -0.052551144934472604 0.08596711094567341 0.00255410296720158 -0.06609826474860829
school 0.009136708104219429 0.033784221451681536 0.0578970426208728 0.08693533908406431 0.2634143066148124 -0.04162576180294421 0.04129552852168211 0.21806665809757994 -0.036064860945800775 -0.4226786824546683 0.04745133604937453 -0.14967273405334502 -0.03159106445301169 0.061098426385020894 0.07308271174788583 0.24504177629450308 0.19397333814093956 0.19724514479069918 -0.07458434127584124 0.22985213899365628 0.11685779142370824 0.015512748336069573 0.0002935192769499676 -0.18057444910292586 0.11461639629803941 -0.1815078543004918 -0.113013598241649 0.2300446857975297 -0.1009503810505682 0.007342755841191995 -0.13770821051201357 -0.2093482162622919 0.2732623588073284 0.20315592405400978 0.09748599256846274 0.16650990937993326 0.02038755419955879 -0.05409387195004873 0.25983954000612935 0.01440290209704536 0.019191752207379946 0.06153430089520471 0.1352362411315374 -0.1534354174371357 -0.06738384939282112 -0.23519854565768183 0.08492031590722966 0.3731739776090467 0.2515844084727974 -0.0859522211460792 -0.22003203941715252 0.0844811115249793 0.1823907980181651 -0.028472653467816297 0.0762766517760382 0.004632540171126675 0.09619870250642958 0.2787351161824403 0.024472262352412056 0.08160047673193475 -0.10947610520587044 0.03703545707117383 0.2587911573078965 -0.09073969033438362 0.11254512262330535 0.35004567281230653 0.021608827446158854 0.1493556689500588 -0.1916835982482339 0.05442612310248686 0.035139635064914486 0.21811577913311955 0.22255793625576364 0.05499858626993075 -0.05413829700348778 -0.07069446900702642 -0.01588505417211203 0.17412943569947845 -0.17878981248097867 0.15089056850127325 0.10155485162549202 -0.12681695187358513 0.13849678269917845 -0.1600513168839119 0.31345110541430066 -0.05054785530377335 0.04590847637232568 0.02371538594316481 -0.1366119473118579 0.1331541869489136 -0.33644440460123104 -0.009306704811300845 -0.017015286579547532 -0.06830572157069963 -0.12463259311489293 -0.3789700770084967 -0.04422941849319591 0.08581520913803702 0.0164180185178494 -0.05811566226696624
students 0.00963630197606956 0.03349214047761446 0.055824680748379284 0.08403166554508604 0.260173624436229 -0.03612270447054153 0.05202386005402177 0.22383774777497636 -0.02881939131332625 -0.41418801796810945 0.04576044583672902 -0.15015135415354788 -0.02319601962942286 0.056637069207646 0.06994720308465398 0.24818767385244966 0.1909738565703008 0.19448234749115495 -0.07668638019704054 0.22818572020467986 0.11590428292438905 0.016555226262602404 -0.002658255502672429 -0.18179297409681464 0.113409080945155 -0.18239435268224097 -0.11147730041620722 0.232588880520567 -0.0959663329642332 0.005774121749423869 -0.14488325425515253 -0.20491403177558398 0.27587618820511195 0.2090997292113512 0.09879722252093134 0.16478751105917722 0.020266514826450734 -0.062102822508979555 0.26099317985151127 0.01447350848401402 0.017405799575980447 0.05179088426273886 0.14155973637467148 -0.14993193210172231 -0.06827727719007279 -0.23267453414609743 0.08012785854428119 0.37326192378569717 0.2508892509158792 -0.094509453656125 -0.2265344517662034 0.08312218950289527 0.17496750179702772 -0.039415938903256086 0.07961963854510483 0.0011094555691918816 0.09568321139293372 0.27898027646818085 0.02426088364762283 0.07494134192798421 -0.11501595753198135 0.04104848598541062 0.25188525644500526 -0.09570633562782957 0.10970073947209816 0.3510552306005697 0.026321892644842117 0.1448467987170204 -0.1873897203703326 0.057738126413857394 0.04456405894568026 0.21696052711590944 0.21558263480042886 0.05246493414124094 -0.05383777559408976 -0.06356022670190346 -0.01495266223023793 0.17295471256211292 -0.1814736487691487 0.144583391811339 0.11093148951233438 -0.13006075367178904 0.1329706918781734 -0.1542190793297343 0.31067375520315366 -0.04193401330563596 0.046597167617883684 0.020579930322806226 -0.1319557393386791 0.13562567320201419 -0.33509905578332055 -0.012553967319888941 -0.014472875455921411 -0.06080615620590368 -0.12297836567106804 -0.3725775907353033 -0.04616162736282088 0.0834682891049875 0.004954330280518666 -0.05868058388405451
two 0.0017269206619755513 0.03668189912091142 0.0625101908042479 0.09224602267365296 0.2657280729712587 -0.03933967790320476 0.04309631854801153 0.23128097080376273 -0.03424034730164744 -0.42504373911125665 0.04302696483097419 -0.14582863097213447 -0.029497053841505295 0.06102373772606663 0.07347221867884086 0.25894065832088375 0.1948966964736572 0.19425037635029901 -0.07851178218337532 0.23716326401222962 0.11351439165927091 0.01715841894338583 -0.005922932844983175 -0.18379401255236616 0.11540703178425372 -0.17844716465202967 -0.10889273883501634 0.23541294460578865 -0.09480866455357623 0.0056449012312555094 -0.14981886423943475 -0.20560036410155047 0.28039874353360755 0.21020670349484144 0.10190402983133681 0.15870593938387625 0.022855881036873058 -0.05417379241358645 0.2552695823313545 0.014781758881919805 0.015590641970316867 0.05302243145561664 0.13932489120591768 -0.1552480896735988 -0.06317423291509049 -0.24213318949953178 0.0751540525279472 0.3765784411749314 0.264043706948196 -0.08406252298177626 -0.23344098570791844 0.08513368784062286 0.17655678467249705 -0.040625060961454594 0.08085434421607918 -0.0019316667517692892 0.10091365074373967 0.2827209292907727 0.024673803373520955 0.08045717200277085 -0.11782825811668418 0.041219274523119014 0.25851299167246433 -0.08875279473489225 0.1170892019075731 0.34868567249948274 0.020377353682706302 0.15055604976764841 -0.18472062826485613 0.05534293818765123 0.04129064004860991 0.2154405619788702 0.22334689418254738 0.05808035669567594 -0.05625812289736447 -0.06683700118493964 -0.013406791123734373 0.17204036207841766 -0.19154116175615404 0.14668592699539282 0.10404308244191958 -0.12804216254020298 0.132866919507778 -0.15977775825126214 0.3189656576424085 -0.044126103033028705 0.04640913831176006 0.027192660624095904 -0.1364971502990614 0.1305919571443418 -0.33224370540651027 -0.0102708499525655 -0.01579018935609195 -0.06466599182380367 -0.12406862211915107 -0.37936839588385507 -0.046379857386070464 0.09090451061060942 0.003347950586253759 -0.06591725884130938
u 0.002412466684946816 0.03711302833497335 0.0570544098881271 0.08141955636911001 0.26010417821856024 -0.044161264355161906 0.04542614356948663 0.21701282749047682 -0.02674023100169998 -0.4115969531173184 0.04032240027634815 -0.14601351145930863 -0.027777467886884892 0.05487056844817005 0.06832268763472486 0.24721800244864373 0.18510143009389862 0.1903356345577929 -0.07557548852872102 0.2316553153202517 0.11547463892689751 0.015554939416332745 -0.005260427152131932 -0.17623282836873425 0.10744568198217212 -0.17424303900911867 -0.11039762591272859 0.2270443879399252 -0.09383260155254418 0.006590442761039794 -0.1367061353929608 -0.19851301748430727 0.2679197707004393 0.20848857235949045 0.09982055246843902 0.1580350120964276 0.018335582909075287 -0.054364427290967555 0.2467373811892617 0.00807931984990265 0.013226946491397464 0.05030137092099602 0.1362785716203787 -0.1479003790995879 -0.06918589038847132 -0.23609937677618933 0.08152766971579453 0.3626902348761721 0.25564962513892936 -0.08695546260760748 -0.22162672273769993 0.08214308023332131 0.17219611646802038 -0.04082192159490823 0.07643447571400713 -0.002309337044335843 0.10557155176721537 0.2752692889221222 0.02827167429129083 0.07258485864252498 -0.11244164763753942 0.033873914670194925 0.2538186956235662 -0.09210943721438254 0.11446328845375978 0.3389495727111547 0.017607483156901266 0.14597748871717034 -0.18619535241204618 0.05413618752537936 0.03748410538998697 0.21666351552338098 0.21520756016620265 0.056005055946379334 -0.053610856009666454 -0.06560091817145106 -0.016139889263514572 0.1747308570905861 -0.179362882501108 0.13814237359095613 0.10619318231256022 -0.12778712499547631 0.13350678677557967 -0.15369647028391595 0.31046344491295086 -0.040508899741077985 0.04147203962740731 0.027930341865938277 -0.13361828360555864 0.12710131560910298 -0.32810606559480576 -0.013994884167325073 -0.019492034644149548 -0.06375942586058862 -0.12029245224451827 -0.37298058018868413 -0.047489985522523974 0.08072504785990035 0.004342963579001482 -0.0665265105382314
century 0.010347966592194816 0.031279298495880785 0.060536003051963536 0.0863111911679072 0.265584729661704 -0.048359915112629735 0.04649330168332456 0.21952545993110367 -0.027524547579725223 -0.41909467489884394 0.04208501682718785 -0.1467420913448572 -0.020446423852379728 0.05353538907867553 0.07721656725658645 0.24999201178402167 0.19306943981737404 0.1926628007604559 -0.0821606008309732 0.2368898132362889 0.11970594468537583 0.013547477508883205 -0.007981452894124094 -0.1875085589615547 0.10887422392402837 -0.18048853649099986 -0.11748242705377615 0.22969446921371398 -0.09339814923622088 0.0052082697688861845 -0.14445419843039542 -0.21175990493290572 0.2745684297812918 0.2153448766837541 0.09936298167496539 0.15639970620610358 0.02014956897048039 -0.05645688324383221 0.25445768638477984 0.015220556919983707 0.008551635580753258 0.05784351516254111 0.1378214549280811 -0.15062814657420373 -0.06614056562890591 -0.23827074462972997 0.07659066334626956 0.3678298220944198 0.2609175318212001 -0.08708251336263625 -0.22755987778349873 0.08772442600787211 0.18215797544165468 -0.04061889328559857 0.07497683058481318 -0.003953632304423361 0.09767259840386015 0.2783593268119499 0.01988381953184564 0.0775754057595834 -0.11397286252959835 0.03807093463190552 0.25525315058692766 -0.08627663868831024 0.10964665112444248 0.3505541092339847 0.017670726600802024 0.14453732361931204 -0.1933614389591638 0.05345611825824486 0.0412120965926118 0.21298337610732587 0.22271114744564 0.054176215420972125 -0.06336794698402073 -0.06736473987073435 -0.017188237133411156 0.17706335523786626 -0.17971309525061493 0.14457305091544018 0.10439552387640079 -0.12876656740241363 0.13651236687486684 -0.15760870087647558 0.31245424831365676 -0.04312744963061411 0.04383035057968644 0.024269211882714244 -0.1376515316105731 0.13397471566400876 -0.32711990277761394 -0.00663431845144239 -0.015731274885730475 -0.063769947724866 -0.1225320163264005 -0.38140125877100745 -0.048894634877258564 0.08849038201162349 0.011694293407522998 -0.06861871482795406
during 0.002156243186552254 0.036552568235894915 0.05472235015050601 0.09407194604225112 0.26864647513507983 -0.03958706247966069 0.04624050458973633 0.230369281362426 -0.03283296448194173 -0.4340189925922899 0.039863413759321994 -0.1462682267778217 -0.024813378658372066 0.061780308465961546 0.08114372806065237 0.25445874183074085 0.19018743752323464 0.1977743359894121 -0.0838432844629818 0.23085352643441903 0.12418673582165174 0.016447270183200476 -0.006846913568613154 -0.1846251795296584 0.11395898322304333 -0.18432082510051237 -0.11132847246282092 0.2428849624471595 -0.09499773555436991 0.005816394710639114 -0.14798683205666438 -0.2054543517968902 0.27698094101687665 0.21310398371391184 0.10078039696729753 0.16726946108943191 0.019698779001178543 -0.05161338854942799 0.2628137609900893 0.012313122486011468 0.018390317374602266 0.06068477923446342 0.14843093383318814 -0.15668721416997966 -0.07671454617799965 -0.24293985768838447 0.07613259767530306 0.3858106791727817 0.2645077326552739 -0.08712271180696958 -0.23128639962857384 0.09234314340533882 0.181883625279915 -0.037344634751661124 0.08004545433102409 0.004671622193651347 0.11116261530198115 0.28528463735896 0.023171231451182467 0.07877007249783786 -0.11273650087954991 0.03531901598545381 0.2616126016343814 -0.09465325039929119 0.11618360639332716 0.3645504944675543 0.024050317122899043 0.1565567046766965 -0.19166317144491768 0.05690979848048259 0.048282840220269865 0.22164315274470572 0.22894659693048147 0.05751812082159788 -0.06166545794315867 -0.07002568837187627 -0.017974332785040528 0.17828766004476118 -0.19860496908284558 0.146332935776064 0.11165001393191928 -0.12974031267643985 0.13508638003002293 -0.16261510010882754 0.3217670530220776 -0.0501434396006718 0.045792305556799064 0.02137055352071573 -0.1310386595902138 0.12796829953124642 -0.34297271173147753 -0.005861681057308667 -0.01729260638509628 -0.06876732872907439 -0.1308905943526259 -0.3849071323801125 -0.05134581734972546 0.0834376203660834 0.004661094411400908 -0.06553762428849667
into 0.010105457530055099 0.03469239736838482 0.055725628261743265 0.08942585310392438 0.2649330382020686 -0.04697764969793131 0.04534893228106139 0.22983993835231076 -0.03358007662711838 -0.42940355245502476 0.04430891063938883 -0.15235754011624708 -0.025291073752688516 0.05988200374342351 0.07355420127659576 0.25926887692960066 0.19320249290998787 0.19881224255732147 -0.08446285033515408 0.23762955433734206 0.11783132711720547 0.01552089490573523 -0.007713001610485834 -0.18233085728012263 0.11464988955163682 -0.1878315756388905 -0.10939361246980765 0.24111953719256474 -0.10001785513785555 0.0091967314659723 -0.14635274719644087 -0.208103631312011 0.2818685820923518 0.2096792321625084 0.10584502640153165 0.16229054157890796 0.02490977949202476 -0.0576143648240466 0.2576259798254419 0.01827625965694877 0.016553687783335734 0.051905278025353524 0.14502603798447064 -0.15555869125030963 -0.07248143539882802 -0.23962085105642697 0.08182791623973584 0.38173839786392266 0.26092872244899207 -0.08747882161034999 -0.2343504834024882 0.08112185487029479 0.18388189573303587 -0.03935756824955544 0.07723323974854082 0.0019959070959067395 0.10845415280907915 0.2788339048078603 0.02248165543276208 0.07305907456355783 -0.11806537582680332 0.033955154400228685 0.25526712178220573 -0.08856080102582944 0.11653567919603648 0.3520394234269846 0.023050547276523576 0.14630547154038903 -0.19197107552344336 0.06350897349037748 0.044230067608722265 0.22016046941000397 0.22365197477184148 0.057287720373923434 -0.056462397599428546 -0.0686566605953678 -0.01833446264630588 0.18028779795614258 -0.19214376162081295 0.1458306807072442 0.11221957261070381 -0.13069173126042485 0.13959851371517537 -0.16572593095418192 0.3244747091919394 -0.04315511951149601 0.044313988650030646 0.02927750684920717 -0.13490454308350383 0.12962250499512948 -0.3378660602029834 -0.004533230373956847 -0.012994409268184421 -0.062255061928994694 -0.1245103675979278 -0.37850329212559414 -0.04895058087032697 0.08587610969653377 0.012742084217977508 -0.07056681542121022
republic 0.010643675928142088 0.03297214245618216 0.062404921879659334 0.09375646350301732 0.2584577602350251 -0.036699099019285766 0.045695141887235086 0.22533808859814358 -0.028494944003532485 -0.42391306193499345 0.035485934885030136 -0.14590272592999223 -0.026683635327401308 0.060929453624402524 0.07210741028176938 0.2540918990858656 0.18922420303433501 0.19785892458545337 -0.08568089464082038 0.2343449961620455 0.114076252599428 0.019945110019350815 -0.004302399556616678 -0.17639148540899993 0.114067666821698 -0.1749382399423234 -0.10628148136411442 0.23149725587221429 -0.09678576464344893 0.003752955047420622 -0.14876751417343734 -0.20385976627428262 0.2752922817649976 0.20464445045313 0.09427942254290199 0.1607692959154574 0.02529860571729004 -0.04844396048381328 0.25753141515694356 0.01415577105861079 0.016902014712795045 0.05303931977264193 0.14581598237669982 -0.15223216011124918 -0.06646794675653667 -0.2378745858640864 0.08090774067670592 0.37676609461141813 0.2590743096309576 -0.08391588235431535 -0.22890033929954184 0.08327754244983826 0.17173636094835573 -0.041379390173495956 0.07389339604193758 0.007323064827604444 0.10165581346444383 0.2718713212310562 0.02256143419526266 0.07457446119272418 -0.1107507072236108 0.03633237133484224 0.25180083477666415 -0.08875769031454354 0.12232537289932024 0.35205855922958057 0.024447598842438033 0.1564875583911101 -0.1818903524791382 0.0571516462060062 0.04481885049229784 0.21702494025234675 0.21991187458521175 0.05898899589515911 -0.05931148015671413 -0.07095958362179289 -0.019083246902843534 0.1703736608467398 -0.19453753626859124 0.14171060608411587 0.10382953000269195 -0.13129088477499662 0.12828101206340298 -0.15674466798217587 0.31006128853507847 -0.05150271952217868 0.04922312746533938 0.025787802231114983 -0.1255966733804444 0.13016067677840987 -0.33324801167776896 -0.011409198594124788 -0.013332063133273123 -0.060302343443799034 -0.13363526242873966 -0.3727234128134206 -0.045273695049699914 0.0826036367932149 0.00222426650601855 -0.06241091479092563
china 0.010710360931556634 0.03638772484306198 0.059417337295338664 0.08949679712456259 0.27873393777724087 -0.03651254628371018 0.047151122411915186 0.2307473389155372 -0.030636461480957597 -0.44209427178278743 0.04433113728250166 -0.15058503289176067 -0.027099573948996092 0.06203903471571707 0.07607682952241439 0.26444968917918893 0.1935623422712762 0.20672984766749367 -0.08598275582388218 0.2381435577184112 0.11965014816942517 0.02117385305120229 -0.01215149833538197 -0.1964151266248436 0.12177957529498087 -0.19200190416510332 -0.11679246472215571 0.24714669545929893 -0.10137862185585632 0.004251408537550528 -0.15312153578424648 -0.21923448426724626 0.28851678405699344 0.22257108604590922 0.10853574091932103 0.17061897191682773 0.026725442676057056 -0.051987827866373224 0.27167591106442585 0.00944925017855771 0.019632277908686133 0.057797072348768436 0.14863356359789245 -0.15727084488830503 -0.07131114811621356 -0.24905931654761318 0.08698392998489349 0.38911776703639306 0.2756341026094052 -0.09451248556879965 -0.24396750792043867 0.08877759427325696 0.1877874133984424 -0.03568408730070071 0.07652977338535495 0.007094417014829695 0.10759594930498288 0.2940716207846341 0.028178693820827154 0.07946224757226905 -0.11601069184467068 0.042843721988450746 0.27308908050249603 -0.09807809127671478 0.12303045364128416 0.3709813279124885 0.023091670720781544 0.16126797641410473 -0.19135246022974142 0.05778328896189227 0.04605931198604665 0.2319037289461025 0.23268155103166124 0.06066506215140529 -0.0629352051926865 -0.07430687310802851 -0.014322052977218717 0.18134463220786523 -0.19872719927498364 0.14681076558066608 0.11006557640112702 -0.13241823639806088 0.13760291119314458 -0.16397507802744243 0.32816192965633173 -0.051882284079774625 0.04969717796703606 0.025311635373017154 -0.1365847834193347 0.1361841214930691 -0.34304441596574725 -0.013592799084678512 -0.020487753801202782 -0.07046876150371845 -0.13086910018400696 -0.39910075864440564 -0.0505267942068584 0.08705068119122507 0.005604501269703291 -0.07088263853123739
one 0.010704149172602144 0.03390731759382224 0.05598032227248666 0.0839127818984073 0.25857070129529836 -0.03640998144779973 0.04894645156246823 0.22390978984636115 -0.03311668866731086 -0.4108873556316344 0.03885851819721315 -0.14586825142174245 -0.020405935325806635 0.0562204081183828 0.07290943097428272 0.2529165161001402 0.18661142899787928 0.19216290025171714 -0.07338326140118058 0.2327396377790939 0.1106198513515357 0.010573202658921307 -0.010159768953675222 -0.18455713689345168 0.11100055684168834 -0.18463800720451026 -0.11162875930578063 0.2344181725000444 -0.0926236083434555 0.014736088785251476 -0.14065571697459067 -0.200361099410504 0.2707403848578391 0.20338844052344973 0.09840156381962384 0.16701668753026927 0.018761255950237057 -0.06255222064294315 0.2507979493453525 0.016955519967252464 0.012559858741241978 0.05675881730151803 0.14108794672595076 -0.14499709286315252 -0.06234459593280094 -0.22771969804217163 0.08573858526408323 0.37019666459319556 0.2512148581399039 -0.09384674896359643 -0.2205817668815993 0.07289072388325205 0.17277892562190253 -0.028727370974211873 0.08020213387165027 0.007248190920458811 0.10216217393795317 0.2777191163818755 0.026687594445878187 0.07559891303312545 -0.10953199229194405 0.036198566058937724 0.25875130854314043 -0.08590218242988974 0.11300160231012296 0.3491365070423296 0.025433584868130257 0.14119774909655505 -0.1839738679840783 0.061664263272318394 0.040098927990705094 0.21653314935624415 0.21296990883531386 0.05477306661762909 -0.06092946163521437 -0.06755773521713497 -0.014604731153061129 0.17334513564975484 -0.1873643433564703 0.14843734980809392 0.11380321052300947 -0.1277224065464995 0.13517003270960207 -0.16003573164615462 0.30703515756173405 -0.04181070138273739 0.04528402047058327 0.027858583787079675 -0.1305493604249191 0.12916697512131095 -0.3314501265055594 -0.009164629826324846 -0.022291769050273472 -0.06813922350060699 -0.1255782285796511 -0.37566522934180807 -0.047737713034328534 0.08571404950747913 0.011277787423821661 -0.05847668085508186
system 0.0065007084243499874 0.035708079746620006 0.05822485586560851 0.08908434593597786 0.26758399052619236 -0.04309623679763399 0.04375760177903409 0.2232555243076833 -0.03145233946480584 -0.4243620595408624 0.03784585286236479 -0.14549477095388896 -0.025931338417412252 0.06048386348492574 0.07111084482037616 0.2590543179396524 0.18972183703382334 0.1957651692206131 -0.07961460132730702 0.2383377689794544 0.12140567159126098 0.01279279239498624 -0.003532450524709756 -0.18193515088265108 0.10872532250275464 -0.17995551632120996 -0.11727297913812035 0.23915263702419004 -0.10102120001848959 0.012810260972445644 -0.14790458400827092 -0.20656272707467616 0.27693048037197926 0.20569203776491485 0.09742601542104495 0.1607729890771509 0.01626552778502647 -0.05346697014299363 0.2634295994648176 0.011814020203114365 0.02109144209440998 0.060706437617719135 0.1392080683018598 -0.15311743300541283 -0.06860310920403617 -0.24135728202822743 0.07973524725984658 0.38257634667167695 0.26371371493494583 -0.08843088404004387 -0.22781853009711428 0.08426724702938057 0.18150137937608654 -0.03884785871842106 0.07634936544565595 0.0012953897168220374 0.10078152373301233 0.2845305492200456 0.028487064893222214 0.0796991051176028 -0.1110051079639165 0.03605489310612031 0.26396559399048625 -0.09442339809816662 0.11268607054551345 0.3596090256588415 0.019664515802715964 0.1551936253502941 -0.1908762841766845 0.060359542698619234 0.04250435610582044 0.22047743487124993 0.22544314583685618 0.05484979470034087 -0.06452001568343405 -0.0651557533500901 -0.0110069445157179 0.17791992523705805 -0.18619097176450614 0.14865681072088904 0.10622086340711764 -0.12861417375233608 0.13547983920931983 -0.16313831255762654 0.32325215023748766 -0.04543090867865143 0.05045024328158483 0.02933139129588874 -0.13029331027449637 0.13429777747971613 -0.337397958730076 -0.008608270082152925 -0.01528463681374678 -0.06436428803979057 -0.13152641519577696 -0.3847635643099377 -0.04428124829555068 0.0821403313928352 0.012122960353738124 -0.06837264417318731
not 0.003358240115146513 0.03806302785005314 0.059679513706781734 0.08382935270383579 0.2636197582889537 -0.03809730480102828 0.046894663638521385 0.22166137061430008 -0.027595079756973378 -0.4161728116223582 0.041542465325181785 -0.14138042278339535 -0.028993550951775214 0.05749214079537643 0.07058703717757894 0.2527488413235084 0.18673933827121567 0.19402132154663215 -0.08038510562656657 0.2288671116328657 0.12020103915576179 0.012207283915919069 -0.0017408991473228366 -0.17836196434585935 0.10563899919495819 -0.17577570921212407 -0.1086903386153127 0.23626299253179053 -0.08979378762136368 0.012042093278135395 -0.1424442984658324 -0.201133245501044 0.2673926761858121 0.20404569729118283 0.10086331723853184 0.15902287795129855 0.020746488491668442 -0.058540386230949204 0.256305380323259 0.014396755927116272 0.014830746161682128 0.05983755708162663 0.1331094058715343 -0.1515844349404866 -0.06662293878384859 -0.2313829174861093 0.07518767226134039 0.36778257214278925 0.24990906649741307 -0.08665543210539808 -0.22738743136493697 0.0764369842209324 0.17840016882973125 -0.03443183656606211 0.07652098616496301 -0.0010821372997548858 0.10136912420915778 0.2721801829113364 0.019632725511098462 0.08165150906604847 -0.11051666348005561 0.03472687093031547 0.2516962197524867 -0.08972871248501658 0.11617718069585538 0.35033502990068244 0.02042437148874931 0.14717636490890196 -0.18663456252682234 0.06257827337318564 0.04007119060815822 0.21588026257245407 0.2183897658985477 0.055702700040926256 -0.05502056198601795 -0.061368584173962744 -0.009461322792181797 0.17619864654937656 -0.17898153678802198 0.14246293027553183 0.10145958647001202 -0.128839789893255 0.13564549100369 -0.15263421633720062 0.3172529630151078 -0.04511391082227724 0.04880108821684203 0.023901523672440042 -0.1322953551213023 0.13219171969754973 -0.32540289868828226 -0.012574290561365192 -0.015682465505053984 -0.05987779573018293 -0.12105195652980394 -0.3789157219741953 -0.047116112444115316 0.08038421819689003 0.01106989354989423 -0.06274692736268173
trade 0.008159527556068814 0.029759258204394505 0.05547293262908468 0.09054390681169942 0.25897902148667157 -0.03966314097028355 0.04224454442140809 0.22054990684198753 -0.029762308727394698 -0.41308430170639193 0.03680265017204487 -0.14749616521291117 -0.026768568345471908 0.0627046162318474 0.0722483894307826 0.24661882151341885 0.18229261152119927 0.19799452297910405 -0.08077436251515775 0.2303428379412353 0.11750074621502322 0.02080931616006616 -0.008479312796414826 -0.18054570770289352 0.1056371923630968 -0.17311696694621828 -0.11217978034454965 0.23375508916144772 -0.09221046592343245 0.0050704085265181895 -0.14578231093436536 -0.19909017329810053 0.2748047488158588 0.2093221727237906 0.10044846037699022 0.15994254779227626 0.02453910041427817 -0.06097933781005883 0.2547424075889358 0.012523646236486231 0.014830328097562209 0.05367004573359894 0.13947880570534404 -0.14665533700844177 -0.07170936418275843 -0.2330025295788845 0.08096220168082034 0.3705841136721237 0.2511361633629849 -0.09071782937939626 -0.22700250655086904 0.07674665116644609 0.17569542972072702 -0.039793599778859795 0.0761006072894882 0.0018344663868633446 0.0995783749397637 0.2747266543628567 0.02931799067987894 0.07996460361682554 -0.10873220804950721 0.040169752457933916 0.25392610331280185 -0.0864556510655738 0.1194774297236594 0.3447230009801855 0.019016838237092947 0.143192349617496 -0.18370822279189722 0.060309646429528234 0.04002393679862261 0.21616927510043557 0.21639846831980536 0.05559585108202512 -0.055890318624551315 -0.05966724047588698 -0.020743322389259227 0.16407949875685043 -0.18979626432504487 0.142061296111402 0.11120340320929958 -0.12679951428534825 0.13717741442585782 -0.1598387781860935 0.30773786132359277 -0.04374777467392147 0.04650068554664136 0.022620958586637596 -0.12862610976651148 0.12947604879204305 -0.3316666959885999 -0.01032174332883713 -0.021193117298961818 -0.06968979319075728 -0.12398640158640732 -0.3718134823255443 -0.05123775654548203 0.08407013582545318 0.01289899728536723 -0.06174178954989546
united 0.0008289561867439942 0.03569854651586903 0.05753847618130609 0.0820858138847301 0.2562995847227696 -0.04247155181423397 0.04888038257017259 0.21691626444607448 -0.029304972970378537 -0.4205428103981823 0.04147124012694629 -0.1456428638119694 -0.03129732814491269 0.05885785046810823 0.06962264623537706 0.2527865891409855 0.19086253626056424 0.19845972982079615 -0.08056378780383364 0.22652081987448963 0.11253818089236838 0.015421656061315937 -0.0009272951325372348 -0.18206545238765987 0.11368644474395152 -0.17531364503519686 -0.1093126279771592 0.23664377656915817 -0.09541672006575205 0.007147308295431618 -0.13780601564240835 -0.20262416418752988 0.2753617810198239 0.2133361573457905 0.09982052889045535 0.15720583793479184 0.018140938361982484 -0.05972430202013795 0.2531818909413873 0.00914310382030027 0.011156996727849524 0.05191793089059957 0.13608027074226967 -0.14954440881785083 -0.06379806114686251 -0.23781188690063879 0.08105571483879657 0.3702296380479991 0.2558487203412777 -0.08463910888839359 -0.22337159343899834 0.08407565568056924 0.17894111813463962 -0.04162908342077346 0.0732541754267416 0.0009523051077116817 0.10603616597904506 0.2785175108403979 0.024595591811513533 0.07246867873094222 -0.11202481600290091 0.037554019965747934 0.24787345684563672 -0.0917208500821466 0.11401767429356463 0.3471960897805534 0.017750586991632653 0.15185618922710573 -0.18504098114682363 0.05236497095419028 0.04630864424053281 0.21856581088261448 0.2137204780978447 0.057192802950578735 -0.05723456478674216 -0.0625227573528104 -0.011415986132262187 0.1656407873015585 -0.18477661000927814 0.14062774541094966 0.10270240334752154 -0.1259073692091896 0.1288816357240124 -0.16257246857358595 0.313261930030021 -0.049057413622758644 0.04483377792957144 0.023287922354839116 -0.13469773931455914 0.1237328254595942 -0.332917952669224 -0.009592863470186938 -0.014353496684831466 -0.06615237268958898 -0.12677072779418305 -0.37972751464243154 -0.049745292087771786 0.08617678580828592 0.010311920073394328 -0.06529012999680242
university 0.011177368196602302 0.03892526691241813 0.06471892488207816 0.08158455279049656 0.27047295862096193 -0.04097442781398421 0.05266326936241206 0.22865910717390578 -0.026655839604543305 -0.4364218537789876 0.039472967084599755 -0.14401133223554213 -0.022617215983968594 0.06349163042425274 0.07953799470360684 0.25656699268381855 0.19089511128566738 0.2013903490376479 -0.08170360379382749 0.23884522220262164 0.12412810120960027 0.017377851310754016 -0.007213061353609038 -0.18403806538892165 0.1116537331881071 -0.18607723417157773 -0.11732269014839457 0.24127971116935398 -0.10230846979185888 0.018068781549317563 -0.14697554341558006 -0.21051413359225357 0.2776402994838629 0.20825730565616946 0.10095235180116816 0.16551337249865217 0.020003597189128225 -0.06779512614464156 0.26530282725514076 0.008739973425857542 0.020229735512503507 0.05781642850195189 0.13963601832801703 -0.1529459780419714 -0.07494453747797174 -0.2396487100876897 0.08210527504625144 0.38682074489131857 0.2619195207371228 -0.09402971157873344 -0.2298258936108224 0.0751717320359499 0.18831311366769785 -0.03869246469463312 0.08428751643813823 -0.0008717403632120407 0.1039858051081257 0.28591837668624864 0.023192598020635283 0.0751673291726869 -0.12020898045029939 0.040892415994964654 0.2618858690446773 -0.08956371937993741 0.11806822713441459 0.3589276204543046 0.019812428913486092 0.15290256339728187 -0.1983033372397482 0.06031621757394561 0.04612175101174469 0.22279723284436773 0.2263836964957353 0.05754465049966612 -0.06552933808609185 -0.07357328200585943 -0.008934352664358625 0.18009960772642522 -0.18399651591424088 0.15098600184386335 0.11812479804743767 -0.12843724614572247 0.1403335072119152 -0.1618831904608293 0.3233063371097128 -0.048121542473555795 0.04408376777757915 0.02838670360641189 -0.14342124159710498 0.1394287630571048 -0.3453505433798182 -0.016640859690825096 -0.024304815646413878 -0.06916533110643976 -0.12735375575487384 -0.38449554283535614 -0.04736759403463748 0.08469721083169758 0.017845983440966457 -0.06271152774255248
were 0.009676983511916537 0.03636888120390489 0.05208656558939775 0.08703964710210024 0.2577265869299681 -0.04463115225074996 0.05011381381798908 0.21916468823317597 -0.026680159797963062 -0.41659440894616745 0.039198604859971016 -0.14739262866597538 -0.0304026178330096 0.062116180810125717 0.07112268672364541 0.2515139240097408 0.18750077409702093 0.19729048313054998 -0.07975870685823706 0.22740952854650429 0.1197740947796127 0.015073249086820647 -0.00574067914164756 -0.18413932028672989 0.10950059663211592 -0.18046982651593954 -0.11115058488650897 0.2268883538969046 -0.09381973036807567 0.005075275106471484 -0.13667897859776018 -0.2075399433035609 0.2716099131760202 0.2074996344654295 0.09501685202688592 0.15708425961719527 0.020919660310158447 -0.05927793678271277 0.25318149372890986 0.014662358725912471 0.014842185921496297 0.04988379785993602 0.13833015869666107 -0.14691611955347428 -0.07185538685104084 -0.2309036536028501 0.07965506002263573 0.37035576862746683 0.25254204091935234 -0.08240058900213985 -0.21982308715556634 0.08365734129801793 0.17917499961923208 -0.03393155557193111 0.07932720437123345 0.00355447714167159 0.10306369777740056 0.27630635153543087 0.028654907562059066 0.0765914053679288 -0.10997487110142108 0.03311603078030998 0.25255758147032237 -0.09095046421860545 0.11256841612534767 0.3471479011169006 0.01971991017967943 0.15189237333760716 -0.18856425040198843 0.0516966873248848 0.043287451495043004 0.2159618298788211 0.2206727503741774 0.05176072983695439 -0.057717573643991354 -0.0701736319601624 -0.009188882512633986 0.17043763835157727 -0.18467878897473988 0.13805002886664494 0.11006745956460715 -0.12349471427251527 0.13179679637352779 -0.1580411422415031 0.3138050156294428 -0.04083264712536023 0.04824088885635173 0.024632790511474 -0.12870703750750742 0.1291130072304091 -0.32687590713034603 -0.006392711189145564 -0.01585594261254562 -0.06349301506752641 -0.1241477360083793 -0.3745339955783762 -0.04175043083343864 0.0800047995970954 0.0022024823013051973 -0.06528398227528885
at 0.004709047355890259 0.030332742726047305 0.05839186842880896 0.08335115983660814 0.26206774062768035 -0.04131494091642801 0.04725931220056255 0.22422104548654972 -0.03444922317283536 -0.42145450436464327 0.03466925502546655 -0.14529842481820415 -0.022644293165947207 0.05855889966217652 0.06998976435232201 0.2533103168619853 0.18483994643894178 0.1917715512398296 -0.07176132801077656 0.2278466003372848 0.10916892531539793 0.017430109924912233 -0.008526621145208803 -0.1796193529492574 0.11527548468315936 -0.18166609350185012 -0.11246175990346252 0.22630750436312205 -0.0954975873633714 0.00901696390566523 -0.1427355378261568 -0.20450022508164017 0.2800336191858542 0.20342616525814072 0.10374298832360566 0.16646479749144416 0.020894728222290996 -0.05676722894923414 0.2512668973359874 0.015167773695438699 0.01847017875135709 0.053128207830323605 0.1401804933396604 -0.15037149117711632 -0.06121523619889703 -0.2292230952183873 0.07776977838527403 0.37172430552200614 0.2543384980331083 -0.09249344454651821 -0.22517209564055327 0.07456696944250242 0.18106815557367167 -0.03818866651405663 0.07652237621055268 -0.0002038903123159431 0.10280557650078637 0.2792954507711671 0.020738185398469992 0.08114524267990636 -0.11692265466385007 0.033988266585054334 0.24983798300964935 -0.09542904330530194 0.10945531614681818 0.3474224845140814 0.020640755531198457 0.14954109155154366 -0.18651490171465415 0.05684951789911235 0.035807022038596155 0.21677846847087867 0.212013114199445 0.05690379628300157 -0.05503579586081774 -0.06773855996912669 -0.013346888329259907 0.1738262953615089 -0.18905486462220206 0.14390531978567303 0.10324042859789875 -0.12312220918802101 0.13940464339320116 -0.15653558071462204 0.3181299715997264 -0.04885805924487941 0.04705577259694347 0.02097246622416578 -0.1357370647783133 0.13229069131388407 -0.3253912544099195 -0.016257590586116574 -0.014641885609126314 -0.06682129199394302 -0.12572057601999667 -0.3736265690433657 -0.04496206825145102 0.08710795134857023 0.005305935843144166 -0.060195540207845906
chinese 0.010361589814948684 0.03092494977608927 0.05689068283906349 0.09154096110062972 0.25569657949011054 -0.03777712287397887 0.044742475278383285 0.21814087083239092 -0.03295615500350739 -0.41549554725265603 0.0376049063873751 -0.14321962967596757 -0.032424258884254056 0.06280304902998496 0.0768977311225337 0.2556731400979837 0.18976464040023683 0.1940527845196446 -0.08311099281722106 0.23527087836514324 0.12279281806682528 0.017038833656628855 -0.009243755173355194 -0.18763077884020127 0.1152231358175345 -0.17250318718532717 -0.11666817028829957 0.23261202144919094 -0.09711201618060936 0.0035817674842831726 -0.14166224557598486 -0.2000365685814633 0.2772832168645016 0.20643703158637117 0.10420202672561797 0.16447042111795557 0.019542475191299747 -0.0488909473043881 0.25991593527132273 0.007435032728787115 0.01956871894561838 0.06117167339473381 0.1407133275583189 -0.15281782874831495 -0.06360018015932879 -0.2341415564016582 0.07603910369785243 0.37533903964295734 0.2617030011990974 -0.08981666756195208 -0.23432698096009608 0.08741510878278255 0.1786037782303637 -0.036669003764391216 0.07086201794329089 0.004231797023227656 0.09659339700814705 0.275878173576827 0.020479047392632236 0.07812570015691984 -0.10936094949232844 0.03492314490920237 0.2525149891316535 -0.08823759732449801 0.11896227425223696 0.3489851892520476 0.020911504717272544 0.15870498186134493 -0.18735221802500787 0.05301282099877074 0.03977764539035966 0.22023015867873524 0.21918801255653086 0.06168908739571774 -0.0587461601952491 -0.06599119872118601 -0.009847359425430252 0.1758125738923869 -0.19360699871340487 0.1439319342020705 0.10967598711831056 -0.1281698987477353 0.12705242726534177 -0.16072937586206024 0.31392870458026545 -0.047185165318549306 0.04797544850022094 0.027179714373417443 -0.12554570147715083 0.12585620574902948 -0.32607731584262684 -0.006545557755275374 -0.012718047870279218 -0.06291991007731387 -0.13137597238789406 -0.3814542551378117 -0.04941471593662895 0.08641783131461937 0.003187499386365368 -0.07246034631986456
relations 0.009530496392047122 0.04052786719201042 0.055065814539702995 0.09141607252985245 0.26625226079918113 -0.0451974183688128 0.050410081847853304 0.23336647782271155 -0.0314808808424017 -0.4323649913608884 0.04136603486386503 -0.14592269633376156 -0.0314792669778143 0.06760825479278755 0.0736024794469344 0.25956626574894887 0.1879521438143016 0.19890737019789287 -0.08595282872057308 0.22975359863275488 0.12515492915366527 0.020518846159782143 -0.013395855787820961 -0.18933294315509638 0.11813960574501603 -0.1840604706224549 -0.10999088823182786 0.24329540205298475 -0.09244225842459855 0.003367979615848778 -0.15267716258542188 -0.2085788772884676 0.27781331731090764 0.2102608052091898 0.09990671365230674 0.16318108928592678 0.02998847350359706 -0.05053561384800641 0.265646936252562 0.006505308702357985 0.015407284290572771 0.061704723561684174 0.14969235607485115 -0.15246603465018843 -0.07261433293850197 -0.2378792440092149 0.08636533330458775 0.38259187645104786 0.2697873860073992 -0.09208709554589452 -0.2401046619232688 0.09132595930070556 0.17622704398465094 -0.0372065653764616 0.07387126211720389 0.0022149874414787766 0.111711263092071 0.2858992406819564 0.023905823361052014 0.0737026540633042 -0.11153364900226255 0.03943830648083648 0.2605839448517791 -0.09089145336841908 0.12323089901621322 0.36227924981372484 0.02042154153143847 0.16078114387737308 -0.19204841172942444 0.05140141756952141 0.045407669703157606 0.2277700009817925 0.2268008312264558 0.055456923115301995 -0.06383399520147351 -0.0725078997897308 -0.012846021459754718 0.16943280946602843 -0.2021974272799347 0.1469364445796732 0.10756632117520983 -0.13726842800350453 0.1311265070756877 -0.15928375668198527 0.32131208995841076 -0.04477920976273926 0.04273876865555836 0.026604490543891017 -0.1326462396017176 0.1318238648488907 -0.3385858223651505 -0.012286531089076657 -0.012965500353036804 -0.0664678303499163 -0.13464606833771875 -0.3803754019232132 -0.04616576603882585 0.08496585260329612 0.0020455763026201034 -0.07305565055824892
states 0.007376865750174839 0.03232761413828604 0.059521208683068746 0.08641509704490913 0.26755597428116423 -0.04226612994537191 0.045413773025100634 0.2220035561093834 -0.02544162905743839 -0.4231947339196375 0.04063674475121889 -0.1490447862042908 -0.03110126309729635 0.06099416361485081 0.07035050708815054 0.24989099274182933 0.18948133256571204 0.20028586006662033 -0.08215736769763683 0.23148552474256692 0.11937003094786235 0.013048803144015022 -0.006630657360393861 -0.18595613235872424 0.11440513950093796 -0.1783792189555094 -0.11493179461235725 0.23604461977172692 -0.0995351630742057 0.009483273764232917 -0.14636317073651944 -0.21241551176341822 0.2781099976757393 0.20831423874383587 0.10242884585671704 0.1569000687355739 0.02078437826172661 -0.0554267351734049 0.25249592557495587 0.011163514925555538 0.012820199951180564 0.05440549209914377 0.14292825782312193 -0.1477317104367526 -0.06559767173541516 -0.23893982008367098 0.0797901620374242 0.37642602825429106 0.2622538616169835 -0.08724863580204312 -0.23343312244576678 0.0837827622373782 0.17595203429973433 -0.040726991675278025 0.07308085050709147 0.006007773818025718 0.09851876777615216 0.28384763981358707 0.026558183024644435 0.07571493802996215 -0.11418355344917117 0.04129980347658578 0.26089066874785893 -0.08897108338303214 0.11862498029953206 0.3560358623059092 0.015136547642354245 0.1519136925256535 -0.1858391031879876 0.053643225543045334 0.03979262258863553 0.22143838993639217 0.2258252891411122 0.05618037554195094 -0.06416457261056313 -0.06285217093492562 -0.013012597058604207 0.17483761481943902 -0.18820340059924248 0.14832495577219307 0.1064634173139055 -0.12991888537246646 0.13424575353841917 -0.16488105571933614 0.32269485840578477 -0.04248269653011927 0.0417957659323092 0.02153269126473416 -0.13534394050701612 0.1331885569697855 -0.3319070607719021 -0.01448849998111164 -0.0204070807489642 -0.0690978925495067 -0.12836638091902386 -0.381187314584978 -0.04383807606778466 0.09050104552170307 0.007812816923980528 -0.06570934076258601
th 0.007724427217747354 0.030166552206785928 0.05134822427909973 0.08116201287536703 0.25916909556944256 -0.04681635582334539 0.050260296821886506 0.22391741994548073 -0.03327021007609584 -0.4148525003856111 0.04437754000163817 -0.14298114534838832 -0.021862717722806006 0.05224043157386459 0.07879758671406528 0.2476840857703665 0.1824091716772678 0.1923767448204641 -0.07973100752072457 0.22773811780011186 0.11278709498455258 0.01697493745740623 -0.0018790115531926424 -0.18232793781042325 0.10556406020367354 -0.17647739651052988 -0.11500203313359379 0.2267141128479521 -0.09448790029966998 0.010437623781883568 -0.1462025766454198 -0.2077257570829662 0.26733449903898704 0.2023936918578122 0.10243191739389046 0.1573511856080814 0.022021008979935364 -0.05315046155066815 0.2521442432800913 0.015531259910746711 0.009693817019812107 0.05299204131324529 0.1348567934411978 -0.148604899512072 -0.06543603603367283 -0.22637596406267704 0.07416113299539459 0.36996441130370444 0.24940668562061688 -0.080161202396866 -0.22835202172137742 0.08791450585671798 0.17404543625949 -0.0359720040909932 0.07130702143407365 -0.0009623967656434674 0.10215062456668231 0.27148115781277665 0.026419887253299343 0.0710876650464141 -0.11817283393890354 0.032574727456298865 0.24660118208050985 -0.08888102829980601 0.1102401503634056 0.33831020023399627 0.014759046596264983 0.14557272445736197 -0.18793654178697572 0.05243492201881076 0.03916376134256919 0.2079807908716405 0.21429751565625516 0.04982809359674081 -0.0588728369379168 -0.060082409599116926 -0.021179202585987118 0.1723366576418487 -0.18524628848772806 0.1361695719045465 0.10178858547314866 -0.12447868709226473 0.13433467295099352 -0.1544775913387358 0.31518867016604524 -0.03902728316499845 0.04510657597003166 0.021843808877182014 -0.1350905279525774 0.12153515990176383 -0.3233165567248018 -0.004275097104398709 -0.015820980684836766 -0.06483723272002122 -0.12232032185153195 -0.3677772448843868 -0.04954789628587642 0.08052985510087993 0.0041879082664557764 -0.06577251441882347
which 0.0074960723413729875 0.03062852323127141 0.06269475871095358 0.08940134051471008 0.2705480800555242 -0.03764038116491181 0.04876640995409876 0.23271508226390808 -0.034350450528735074 -0.42411917805223476 0.04049950535336583 -0.14542364580655412 -0.029549422338504723 0.05907735923594772 0.0775800629827624 0.26246672021605827 0.1918278951099845 0.20451101098683644 -0.08505127946357753 0.23537945911009894 0.11803640403624263 0.014317688508873017 -0.004464987237641632 -0.18280223102258175 0.11731418829379135 -0.17947677295805572 -0.11036346054007273 0.23561743208643737 -0.09554410938109047 0.014586512402012716 -0.15034060467648308 -0.21288364099285664 0.27718254403952763 0.21169845772333448 0.1027801360042097 0.16890488840734472 0.020137792706858237 -0.05759492803080217 0.25599411111152653 0.008857330257801752 0.015110321798294815 0.060283499810973806 0.13967396865120443 -0.1552249791183038 -0.0705898037921941 -0.23913758391162232 0.08248315283624438 0.3780700082418409 0.26500797885731164 -0.09001230196892838 -0.22781050944107514 0.08829339981091773 0.18254688844999445 -0.034281385190928645 0.07888710044403173 0.0026486674906009066 0.1014737524806826 0.2858630392053662 0.031039305321310905 0.07865954284065066 -0.11565234291478424 0.037973065002289814 0.26341227727749955 -0.09493052851672155 0.11424938292017103 0.3623888051569601 0.02551058686475413 0.14932431563276863 -0.1958213188196425 0.059960738060105705 0.039430938866144044 0.22198368805718066 0.22278133792150928 0.05368805599047124 -0.05718021969309692 -0.06728184229078339 -0.017979756417230625 0.1757739133797767 -0.18861905172717836 0.14383310405934643 0.11246850960110688 -0.1316817696803671 0.13759461831516964 -0.16397788451912057 0.32386950472442533 -0.05128169004708058 0.04676932634257647 0.025365138429156484 -0.137175185088819 0.12908475063860733 -0.3331659480909159 -0.007333528827219441 -0.019643830948202604 -0.07100207910830271 -0.1337950918701884 -0.38477424978181135 -0.046695674552092746 0.0886625764505026 0.010415568972634407 -0.07130740825160886
after 0.00011193454280392665 0.029335200524421588 0.0570364159664989 0.09222419015606974 0.25819014856598305 -0.03512778077924 0.05178091187055487 0.21716350948672755 -0.02779559316357183 -0.4226543741560682 0.0328502348839023 -0.14453110104919872 -0.02986818561285038 0.06265872661159422 0.07415177181545207 0.2493371641455589 0.18893605725609158 0.19316530701327594 -0.08552740256336004 0.223670123200533 0.11900129449882421 0.016678777438491825 -0.009118002912771248 -0.18111362850711088 0.10712332639170159 -0.17916381532580092 -0.10857562734336688 0.23657464086599214 -0.09489735273305995 0.00585413960114791 -0.13884673722507884 -0.20081684368840616 0.27002703051943977 0.20937534322745863 0.09448210645670423 0.16017066098291252 0.021764636000159092 -0.05757174504477597 0.2565758241800659 0.008973997697336426 0.0217173241867961 0.056201254384747594 0.13471463122670224 -0.15512189892630604 -0.06679114785485073 -0.23519457875266575 0.07698830288480814 0.36754502600418537 0.2534579688035329 -0.09029052592411448 -0.22612116682812883 0.08902573270010924 0.17037094578712522 -0.03760636487430765 0.07041848330974745 -0.0008161409761941326 0.10391315549258184 0.2753567390505453 0.02568573671287351 0.07879269550723045 -0.11508474494065755 0.0409381377527422 0.24888321300748964 -0.09035053892092589 0.11459971703044977 0.3449038513158793 0.016653987391828422 0.14497299174151204 -0.18338777658247502 0.055677642593047326 0.03997144776042706 0.213831872134188 0.21382973352595455 0.05770812129949652 -0.05228106644561307 -0.06511310069668289 -0.020692111073851636 0.16939650048235166 -0.18471729104371462 0.1373691394879407 0.10281252134582665 -0.12103410593427023 0.13191596224429064 -0.15430889800886718 0.31677635423023087 -0.04903959903151277 0.04743470117123831 0.02359820266152309 -0.12791065766748302 0.1252368663406488 -0.33006936086342314 -0.004812994530391077 -0.01694345545954021 -0.06717185548991635 -0.12931400487127653 -0.37105400170538555 -0.051698324712688405 0.08094516194995512 0.005042844814451969 -0.06805994853283576
an 0.0016849710521091553 0.034173419114056344 0.05687685680562973 0.0867358361991153 0.26430331444165184 -0.04018367810805713 0.047140869375444074 0.22504030830900218 -0.028126153926832282 -0.43346635931020727 0.041034314716423576 -0.14739718542044958 -0.026854527468461484 0.05823049444594477 0.07761377651435444 0.2572005839020256 0.19571579138321982 0.20567166214876825 -0.07682432273936836 0.240324934542717 0.12356489350367984 0.01649646138261386 -0.00515078883470317 -0.18366646759518995 0.10963965651455007 -0.18994041914077772 -0.11363353589511402 0.2387013771622343 -0.1003384968855869 0.013727676589181465 -0.14535175462374209 -0.20787246934851766 0.27862150957386994 0.21636482906433038 0.10646209827070091 0.16435024749994176 0.016101578467972357 -0.058449151901151686 0.2666236762625685 0.018849817051835336 0.017479423812410088 0.06021725300234362 0.1389920846370285 -0.15281338549654505 -0.07519398217182298 -0.23695907537746846 0.08166810889739388 0.379414054722842 0.256332951502887 -0.09335431398904738 -0.23866448165831092 0.0808527568378695 0.18001402364639216 -0.03593277626619452 0.07412302041986488 -0.002494848231671857 0.10693424769126676 0.2896436042088026 0.029734458227629112 0.08482756247596072 -0.1230501213181241 0.037975587164738846 0.26444009125131596 -0.09067992861185951 0.1222030800981171 0.3565097703725252 0.015596192964777739 0.14575109665119507 -0.1880403859575703 0.05861430832252034 0.04362347995075458 0.22747448288649386 0.2230658022295769 0.056657527555309235 -0.058342962312477244 -0.06830737787083421 -0.01920018227686547 0.17666611632710644 -0.19204374050084577 0.14925584260512634 0.11423801318951968 -0.12477105604207642 0.1358905161675407 -0.15857944300744897 0.3208674244566205 -0.05026169368362385 0.04421067024267371 0.022019124479517743 -0.1398572411513557 0.13540568998063018 -0.3385753189485604 -0.01592207163030686 -0.015442428285456486 -0.07102258782169324 -0.12703807855262964 -0.38985773446136435 -0.04648410105878582 0.08985327364760737 0.010287413711569082 -0.06207728266438561
high 0.008129269520444633 0.03691987972116609 0.0606609816886654 0.08786384686548217 0.2699595905501853 -0.04405499161219957 0.04642409741846102 0.2235443654870422 -0.03656885940921295 -0.42229122812830855 0.04708662026065559 -0.14483730350235927 -0.026586894568636932 0.05286611013692978 0.07901592749437468 0.2579184230681626 0.19252809502494872 0.1993885860445581 -0.08145202272978276 0.23897750414555127 0.11787287827751676 0.017519165151585966 0.0010483479864969814 -0.189869437501892 0.11509768355749495 -0.18936246251007285 -0.11578321607657945 0.24047639210277266 -0.10118260625149103 0.009553883417022027 -0.14092859732986338 -0.21189744933970467 0.2811414414947037 0.212465137069074 0.09851955941565152 0.166049354452737 0.02051142274979471 -0.059584228466776606 0.2653674760388863 0.01531584489860024 0.018915658060059296 0.05315674016097128 0.1379952290194784 -0.1536696996959138 -0.06910787272543281 -0.2389261552246891 0.07860929177849643 0.38128588871656494 0.2606289601771192 -0.08954739947013392 -0.2269775716953224 0.07573336949896814 0.18348682551860163 -0.032814652962668264 0.08062652472581647 0.005882820821882647 0.10232812253156978 0.28252991877352246 0.028343986129920326 0.07698292266363709 -0.11168843643299295 0.03814431211922812 0.2633622978305912 -0.09558578826736887 0.11225205996802967 0.3493922060896007 0.01924264149189418 0.14604639310967496 -0.19355490378739212 0.05628284490974307 0.039212135997445906 0.22590787067990709 0.22511798926444834 0.05105849018251888 -0.06335424009920507 -0.07071513443127632 -0.017473316721490065 0.18037954806510426 -0.183774534888092 0.14952612581513072 0.11230773979113244 -0.12954241217381104 0.13751496685022183 -0.15615623795924852 0.3255296427517913 -0.04226703228015911 0.04775391972817181 0.03324182922543252 -0.14061947710606285 0.1335666644715841 -0.3407531773339936 -0.009602426267527752 -0.01975531144355936 -0.07127549886974181 -0.11906292707795346 -0.3803645626382855 -0.047875179094753154 0.0901789542718479 0.015488450100889225 -0.06359046048570448
most 0.011049054227225252 0.036398210199606436 0.05435483015081464 0.08380607578340211 0.2578310957499186 -0.036849659880791225 0.047958465048112194 0.2189186195714216 -0.031022900175075228 -0.42322142953634645 0.0445958330802763 -0.14338332841875817 -0.030161054389644285 0.05690008787695507 0.07814642377417019 0.24693445658972266 0.1892701769170774 0.19401369992793588 -0.08037337169081221 0.22636279356621494 0.12058218759995867 0.00954722683748045 -0.006557853151636256 -0.17860501491214778 0.10953879169324396 -0.18379297910170336 -0.11415237390466502 0.2304193613232954 -0.09703559610766645 0.007556857964905512 -0.14659764128844077 -0.2116909430922167 0.27117770648638906 0.2073655958233587 0.09678624606226391 0.15987897632003265 0.01927205809479169 -0.05709078794307595 0.2500832143517509 0.01048037630800244 0.014606052825591036 0.0566661778669674 0.14027439485467602 -0.1562964770460142 -0.07206299045271626 -0.23113595382390967 0.08385756115531018 0.37546674236017313 0.25834413453047655 -0.09108892270698084 -0.22348786303985185 0.07955134547800596 0.17646195126208608 -0.03686514882777743 0.08068611081887561 0.0004323736507232073 0.09960935652583246 0.27476539662770316 0.028779020870351935 0.0807439123136345 -0.11225539355742221 0.033146766968770495 0.2593868551221988 -0.0875324126138172 0.11737189374755021 0.3454625519530755 0.023021221493724077 0.14077173528683928 -0.18444485936175464 0.05217010950104479 0.040843442290684324 0.21986184435648548 0.22209188925577347 0.052924044027996865 -0.058946366304333635 -0.06888938794945318 -0.010236436632309524 0.17296270969836602 -0.18630815511562754 0.14095219718032104 0.11207900598651147 -0.12984759474638616 0.13163348472455236 -0.16052999674094084 0.30963059073000204 -0.04619373007339337 0.04774247830907263 0.029538671373050558 -0.13292323179976046 0.12906433405451936 -0.32917191072514707 -0.009548356193945463 -0.01859515898391329 -0.06292626427017593 -0.12776445649267879 -0.37407428878757865 -0.04519001775665418 0.08425155100539129 0.01347553126492162 -0.0665865059692363
have 0.008938248655736645 0.03743042066029608 0.055940584657741876 0.08849957882918222 0.26151333123221837 -0.03453575936512273 0.044759440686223194 0.22263166686543734 -0.03448459564069722 -0.42167469179044176 0.0377587794354042 -0.14528909431049125 -0.026375464169975164 0.06237026076052884 0.07820159396718672 0.24451331861232817 0.18664735854441333 0.19077077842494014 -0.07968522958791992 0.232235016213727 0.1143113597812261 0.015377961350347547 -0.00772913194853094 -0.17647878404144218 0.10770116073049185 -0.17520146705130232 -0.10807459155831173 0.23268493565515072 -0.09791486131210649 0.01524769435522176 -0.14049375529592062 -0.2042434326202411 0.26952952827750093 0.20301183897684866 0.10220972696683402 0.15995648191883485 0.017228728869817245 -0.062411295433301185 0.25532186755232267 0.010627213382453463 0.010376321739595233 0.05961099838125537 0.13599266714755948 -0.15452574549258585 -0.06442078540727496 -0.2323341146105418 0.08142459556788137 0.36430336613319503 0.2585550256426565 -0.08491787276620961 -0.2234605126051694 0.07780379898735008 0.17421254883248066 -0.03556173414981637 0.07953817850617803 0.006554401880223919 0.09655512956930294 0.2713638561553924 0.01962055765242803 0.07866619985790878 -0.11746995348433932 0.03895507554797328 0.2576553136650492 -0.08474789142173782 0.11454339640832112 0.3498252508341024 0.015651345110732386 0.14248199312331722 -0.18771629285248395 0.05405368542924318 0.03644923852591816 0.21824452188563634 0.2210916904464539 0.049392091509232065 -0.06209463879185008 -0.060853349562577194 -0.01716664780254012 0.17637740326477822 -0.1794880260696098 0.1482269748949281 0.10277143845144168 -0.12690347646123173 0.13765381191776413 -0.1531534381934617 0.31387832181924674 -0.04555505682511905 0.047659948098122885 0.021293177863481245 -0.1370310763428783 0.13275884200331983 -0.3262851728992657 -0.008700391778492817 -0.017003829867993675 -0.06970832932882359 -0.11965389707190645 -0.3752118745426744 -0.05102047827271428 0.08062749845460222 0.014380134874560283 -0.06286582224239527
it 0.009842119241980966 0.028386629628823847 0.0517299180660365 0.08363748499348846 0.24699814676881854 -0.039011967837416235 0.0428333131798158 0.21351764704775775 -0.031976941661505186 -0.40548089472385 0.0382440931306049 -0.1398215031897062 -0.025845991181812345 0.060100438524527164 0.07528979522994442 0.24654188140675598 0.18406144079500714 0.19093244880492166 -0.0803602868914571 0.2259698641669905 0.11464432837426682 0.011690976748924222 -0.005540908698194313 -0.1706863045135429 0.10509770322512607 -0.17507784949865707 -0.10475971710334502 0.2295207448082528 -0.09027409513362453 0.011917690715532394 -0.1405168626226738 -0.19890045140595072 0.2643725681054597 0.19749528408156783 0.09160960152202335 0.15229483905399438 0.017652306802451126 -0.05803010519283121 0.2507886561978225 0.011774153082922343 0.012244505053936391 0.05362566649727536 0.13714782290362834 -0.15014586442147015 -0.06311027566202905 -0.23071019338969892 0.0778434543463577 0.35810675347917137 0.25019924712579944 -0.08758624735420714 -0.2211466772259057 0.07355249990864397 0.16757398257073847 -0.03656850164977747 0.07274978744654229 0.004706243661123523 0.09803050317321525 0.2653992795018134 0.023489358011357476 0.07602846966531768 -0.110213529743962 0.034864218207939536 0.24616406957937575 -0.08970930529639716 0.11270751390466066 0.33515512152261373 0.0206080104126258 0.14455672712873793 -0.17707838863492828 0.05044916253974736 0.04069275470124613 0.207094261620933 0.21176144586306983 0.05220956115721727 -0.05863793672734957 -0.05955715008537043 -0.016461424701321146 0.1719412879340439 -0.1825150299266652 0.13804723401985972 0.10967702984822397 -0.1183771655095167 0.13374271101490348 -0.15441434531317197 0.30204006951282675 -0.047255798084129885 0.038226017884042125 0.021015199193638413 -0.12406106847426467 0.12440308507762037 -0.3211160204607737 -0.00947973467505237 -0.014971776806511303 -0.06430513285288164 -0.12287049923259394 -0.3602053501022854 -0.050924893798078824 0.08866487349260804 0.003423381293242742 -0.059066833966037874
japan 0.007588204243501484 0.03195394273125281 0.059570797565888504 0.09162673056617249 0.2613129255164428 -0.039805711006709106 0.04584030276175643 0.22169288380100077 -0.0318635894311507 -0.4196663200695119 0.03364183440334645 -0.14618119401440657 -0.0274463357313905 0.060041568431418293 0.07662036964579542 0.2491180314352409 0.18621768688409862 0.20106125674485653 -0.07579198758690395 0.22421760111444436 0.11544853106199003 0.013260075899150025 -0.001888036676470445 -0.1762533353378515 0.11311281824950283 -0.17964098081103502 -0.10682788342819562 0.23443367492295056 -0.09847445174185582 0.005856969380242711 -0.14001931712413093 -0.20045114368872458 0.27588945103007506 0.20800410702520375 0.0996897170339609 0.15992103474630995 0.018447189723345157 -0.05641375241159368 0.25258828154206003 0.01058426288166506 0.021966417048537797 0.051755769656293325 0.13671869912578952 -0.14765000179899293 -0.06594209748432252 -0.23118874751841442 0.07385270820111185 0.3748770416799291 0.2541470879427546 -0.0867017942972982 -0.2256060770091803 0.08627402889740386 0.17823288323343944 -0.03688573666384059 0.07390927030557144 0.002016837668571573 0.10959460187195035 0.27094986335881954 0.026979634873043896 0.07600995433489528 -0.11159168371394876 0.03167437075115576 0.2554405078625604 -0.09513013268771335 0.1126152794875251 0.35473933081182396 0.01990751307252687 0.150345097236668 -0.1881304732691319 0.05973437725705656 0.042808431653717845 0.21287658909152424 0.2130170189210926 0.050321496238368915 -0.05293114267880596 -0.063657370278674 -0.01707289078737012 0.1728786596904535 -0.18756601861632555 0.14661931719667476 0.10395659209903495 -0.13322191671422587 0.1353493729811886 -0.15698905099465613 0.3178080801689004 -0.049163373899759284 0.04529132296162625 0.02260491927351313 -0.13246777779076718 0.12588058493866885 -0.3315567203286756 -0.009570724702678685 -0.01577206222245854 -0.06204119077559552 -0.12773620584240075 -0.3747881852101377 -0.048795543420631055 0.09060181175044048 0.004181869710265666 -0.06543177245624138
largest 0.004696240473099174 0.03319322606075856 0.06064581948341919 0.08980035256447003 0.2654449992437093 -0.04057234476695126 0.050610652566850926 0.22616562336780874 -0.03162013438161695 -0.42617941815052274 0.04397552336284652 -0.15128688318946112 -0.02971009408136673 0.06499773069083142 0.07374525057495018 0.2566737947437239 0.18944022205304448 0.19942256377230105 -0.08000645779440792 0.23660933959586303 0.1174040172520171 0.010300363460431469 -0.000739200044708878 -0.181114955459003 0.11374619351464717 -0.17819630697584304 -0.10962532868285271 0.23769624133880074 -0.10096954228986746 0.014100221011403588 -0.14511893408686408 -0.2111673621579986 0.27323702711929543 0.21344340146169807 0.09884214690524984 0.1593200174727685 0.018822453013861477 -0.05802461508127665 0.2564208154058296 0.015129184837039993 0.01800195328556892 0.05244297736384143 0.14544108625385765 -0.14703090244047842 -0.06822367296375814 -0.2428031506152295 0.0866473190537094 0.38089896518608557 0.2622723250810711 -0.09232254376956615 -0.23492287724580582 0.08559741883362525 0.17438589296376716 -0.03888452793688706 0.08052913261875894 0.005209512122470087 0.10391550773207436 0.2824147776532698 0.024272803531534323 0.075161102775128 -0.11830204870088228 0.042422021402410734 0.25516022762736157 -0.09272843823953732 0.11661330360529354 0.35545088358240806 0.017198497823030873 0.14483036724766335 -0.18985124816235163 0.06119569204571485 0.041881910165116026 0.21869136817967982 0.2205416397185295 0.059358667178683565 -0.056363332930381635 -0.0625059942874004 -0.01857291847711167 0.17160502667727653 -0.1902987007387106 0.1455460383954359 0.11486359356748294 -0.13140970112552136 0.13917041221220725 -0.16414536906832247 0.31618973556640706 -0.050516769097375035 0.04664579488825696 0.024920851253022857 -0.13605276948617118 0.13445243855191272 -0.33554052600784756 -0.009693048246841508 -0.017568476947772013 -0.06826951117376792 -0.13163000714152 -0.37803654948082366 -0.04917453266973477 0.08531633922906709 0.01315838052839297 -0.06890758621417069
between 0.0059393874361288335 0.038088149713203935 0.05822646898048748 0.08319839196637206 0.25871811158464797 -0.04388940979950071 0.05158296692396106 0.2261034337685651 -0.026640370652758476 -0.41649267149995933 0.03564222191280899 -0.148144122312886 -0.03081365756238406 0.05665151392639251 0.07692183757551062 0.2540850876167182 0.1893390416268562 0.1933277330393268 -0.0795462060225267 0.22925146230087012 0.11864503049290277 0.015787936217930718 -0.0009624390355476291 -0.18227361281700274 0.11031116027911299 -0.17556306103665373 -0.11233438084882429 0.23703007168513368 -0.0930769820168631 0.008846329567218156 -0.14395992696323454 -0.20166956747307146 0.2723803777669772 0.2106670668683034 0.10283524090425328 0.1610193810501752 0.02550426559410438 -0.05369483258432184 0.25531129662830626 0.014231817328625055 0.015864886765436976 0.058125017641256695 0.13961766775834106 -0.14719436859132584 -0.06991149727412774 -0.2297029629079162 0.07530992785586942 0.3736968767069087 0.2609479111994711 -0.08929108281518343 -0.22588556644543464 0.0819331763638212 0.17533717867680249 -0.03879981058508768 0.07180108774845079 0.00233469619867962 0.10300294271224499 0.27127965998280057 0.023618298356282354 0.07286943551868466 -0.11150667816000503 0.03702999301468743 0.254074371336776 -0.08666000615198939 0.1183096358066833 0.35112290168872706 0.023727968168432305 0.14979031113389094 -0.18783341549488014 0.05503136142614085 0.04615504792266402 0.21811106032320632 0.21969216951251677 0.051010394680551595 -0.05430904920149591 -0.05960209211912504 -0.01959390683213248 0.1710438044026004 -0.18281025434340606 0.13914404846934325 0.1068611122350114 -0.13099014773939913 0.13203489142513822 -0.16266344243685424 0.3144074774035028 -0.041217916958758316 0.0454260470457718 0.027438726731164795 -0.13517958273979047 0.12952114705256326 -0.32730207746592604 -0.00944355121320031 -0.013273604409498775 -0.062056638617209246 -0.12610350106715743 -0.370902282558983 -0.04581300348532011 0.08760422836460362 0.002039938587812589 -0.06168291648111313
